<?xml version="1.0"?>
<opencv_storage>
<opencv_ml_ann_mlp>
  <format>3</format>
  <layer_sizes>
    400 200 50 1</layer_sizes>
  <activation_function>SIGMOID_SYM</activation_function>
  <f_param1>6.6666666666666663e-01</f_param1>
  <f_param2>1.7159000000000000e+00</f_param2>
  <min_val>-9.4999999999999996e-01</min_val>
  <max_val>9.4999999999999996e-01</max_val>
  <min_val1>-9.7999999999999998e-01</min_val1>
  <max_val1>9.7999999999999998e-01</max_val1>
  <training_params>
    <train_method>BACKPROP</train_method>
    <dw_scale>1.0000000000000001e-01</dw_scale>
    <moment_scale>1.0000000000000001e-01</moment_scale>
    <term_criteria>
      <iterations>10000</iterations></term_criteria></training_params>
  <input_scale>
    2.1535112546730256e-01 -1.0867812849467223e-01
    3.4408652871570861e-01 -1.1245285994340198e-01
    1.2518523016153360e-01 -1.4721503323465265e-01
    3.9347955701441208e-02 -1.3835898948463010e-01
    3.1997475352559444e-02 -1.4720626230632794e-01
    2.9795572383131672e-02 -1.6257174503272961e-01
    2.7586124945343585e-02 -1.8288008343654219e-01
    2.5950806947506525e-02 -1.9904075626637335e-01
    2.4929803769256548e-02 -2.1651093543551253e-01
    2.3671298356500090e-02 -2.4676336722474396e-01
    2.2486714059592766e-02 -3.1661460894707805e-01
    1.7711664531051254e-02 -4.6525277444135749e-01
    1.2531291036051754e-02 -5.1792502588389322e-01
    1.1210179867348537e-02 -4.9275211942991004e-01
    1.1798646537438054e-02 -4.5601109724933420e-01
    1.4747629871230647e-02 -3.9099070107394918e-01
    2.4718901272966571e-02 -2.7324282673431949e-01
    4.0248400104805626e-02 -1.5872634883045086e-01
    6.9492877777736259e-02 -1.1608028187454268e-01
    1.9204961168209297e-01 -1.2499318302214431e-01
    2.8080870935955876e-01 -1.1425829235579811e-01
    4.2140177257564204e-01 -1.3517030786993359e-01
    1.6302768550413232e-01 -1.5892922413671001e-01
    5.3352595442962107e-02 -1.4820993343023969e-01
    4.0160109383360329e-02 -1.9865044795074652e-01
    3.1410095649190124e-02 -2.8470882788162555e-01
    2.4330176785745252e-02 -3.2864994387262497e-01
    2.1192588038834538e-02 -3.6258268641860769e-01
    1.9422482078916409e-02 -4.0876729392065836e-01
    1.8024894557405340e-02 -4.8295472833442715e-01
    1.6332842176225482e-02 -6.6008862297966031e-01
    1.2808216506851470e-02 -7.7012085033025512e-01
    1.1035029640230766e-02 -7.5414255636280980e-01
    1.1141936337115096e-02 -7.1166784148782780e-01
    1.1880697730004740e-02 -6.2213262601067654e-01
    1.5071910745929748e-02 -5.1882316222755653e-01
    2.6098492978964456e-02 -3.6079830028414778e-01
    4.2459966410856378e-02 -2.0188251254845260e-01
    7.0007128159349563e-02 -1.3479957265692263e-01
    2.1194769138876612e-01 -1.5274442563771412e-01
    2.8857529923078590e-01 -1.1849320946068582e-01
    3.0512074092511965e-01 -1.3551451901422912e-01
    1.9169169242764836e-01 -1.6786409378789877e-01
    5.6759903307550055e-02 -2.3829646556214451e-01
    2.5027850386111796e-02 -3.8626548796554566e-01
    1.6335088481915755e-02 -5.1457049675993838e-01
    1.3843822473019237e-02 -7.0434636070129442e-01
    1.2686653057620576e-02 -7.9347100482913346e-01
    1.2089345572370902e-02 -8.8519561558515969e-01
    1.1844038259572382e-02 -1.0884825552107200e+00
    1.1751617436163193e-02 -1.3985792488493716e+00
    1.0991728234098889e-02 -1.5285768657917203e+00
    1.0807500789919411e-02 -1.4853521162458376e+00
    1.0690647598381561e-02 -1.3371272736411499e+00
    1.0481733565715905e-02 -1.0752511682830233e+00
    1.2098102194760334e-02 -8.7796851318604763e-01
    1.7440006359738740e-02 -6.4896634466197267e-01
    2.5332990567748181e-02 -3.5020382770889874e-01
    4.4627807106072830e-02 -1.9303396453562507e-01
    1.5222889962305700e-01 -1.7880517399859069e-01
    3.1069112755909334e-01 -1.1368865282190287e-01
    3.3395173671064199e-01 -1.3432695554841467e-01
    1.2680116599587962e-01 -1.5029598166923161e-01
    3.2090275120455369e-02 -3.0924985800438837e-01
    1.4728053250577714e-02 -5.4556192411020354e-01
    1.0847465838441005e-02 -7.7124573105798344e-01
    9.6804487235464236e-03 -1.0413422736766904e+00
    9.0973235096064829e-03 -1.1563553701822009e+00
    9.2065325344298388e-03 -1.2945036229881925e+00
    9.9132842943877881e-03 -1.6213481061592003e+00
    1.1095276111167991e-02 -2.1060156401028718e+00
    1.2379732762161559e-02 -2.5592619233865985e+00
    1.3391616298674372e-02 -2.8077630817055810e+00
    1.3067707061425500e-02 -2.6270653940344242e+00
    1.1206109748732811e-02 -1.9683416999713208e+00
    9.9514425802433980e-03 -1.3334469768765433e+00
    1.0621287404920099e-02 -9.1483502111688897e-01
    1.7298985024512995e-02 -5.6263579691923971e-01
    2.7598507099033266e-02 -2.4863068476414929e-01
    6.5176686734308445e-02 -1.7966069001575433e-01
    1.0509593101985969e-01 -9.6435791452580757e-02
    2.3793738847176044e-01 -1.3347977332796615e-01
    1.1612867344149352e-01 -1.7148982875065988e-01
    2.7802934181393332e-02 -3.3887738352097707e-01
    1.3204807578945913e-02 -6.2601115706667609e-01
    1.0147670193404837e-02 -8.8173711013373934e-01
    9.4896331594525353e-03 -1.1316829331900382e+00
    9.3979318579383089e-03 -1.2546939062515832e+00
    9.8857566684472254e-03 -1.4250309032951527e+00
    1.1174426634036040e-02 -1.8484207989723527e+00
    1.3910299234255540e-02 -2.6477749469807526e+00
    1.8240736234224175e-02 -3.9484740055317866e+00
    1.7717598396918995e-02 -4.0140588405340045e+00
    1.5063871440048681e-02 -3.3384638846332466e+00
    1.2260675918934255e-02 -2.5412648180858075e+00
    1.0670368569090949e-02 -1.8053886082583799e+00
    9.8824225779680346e-03 -1.1103877126489792e+00
    1.4185390119853062e-02 -6.6175373229044521e-01
    2.0620679720539652e-02 -3.0644941249491003e-01
    3.5175625112976984e-02 -2.0322602777097037e-01
    6.7400070369667289e-02 -1.0389275279048808e-01
    1.4951070784934986e-01 -1.1484761077813188e-01
    1.5500796027233957e-01 -1.5688422049909972e-01
    4.5603432166089482e-02 -3.4667525318439252e-01
    1.8616209575632855e-02 -5.4349278514335952e-01
    1.4180814337396007e-02 -8.8025358420035349e-01
    1.0038478846274939e-02 -9.2654038133369510e-01
    9.5920908594922284e-03 -1.0177217333104549e+00
    9.7614481978862393e-03 -1.1412896184437384e+00
    1.0477876945836878e-02 -1.2374479988346578e+00
    1.0922038438890145e-02 -1.4193005900414184e+00
    1.1985080143988204e-02 -1.8705540865695851e+00
    1.3134447590721998e-02 -2.4108009504495560e+00
    1.2807305927487240e-02 -2.5107685807509412e+00
    1.1543976572812399e-02 -2.1750345916012472e+00
    1.0659552209948518e-02 -1.6881246992154642e+00
    1.0742696154015168e-02 -1.1701436774464287e+00
    1.2793016727044582e-02 -6.1669130214237955e-01
    1.7572143182347545e-02 -3.3832102115882917e-01
    2.5820063761488390e-02 -2.1706643920156302e-01
    5.8384462260704158e-02 -1.2242254097868321e-01
    1.2751320269417921e-01 -1.2407010876668274e-01
    1.6048972176536958e-01 -9.9222695765554370e-02
    1.1295758568537831e-01 -2.6609189179144049e-01
    2.9718234931146198e-02 -3.8395738166162446e-01
    1.3880073800959628e-02 -6.2349188124161670e-01
    9.6634719557126547e-03 -7.5757481215562228e-01
    8.9208420113120503e-03 -8.9181840323142669e-01
    9.3872281835504050e-03 -9.6965085087598379e-01
    1.0089900531272303e-02 -8.6125380470588697e-01
    8.9711096843199858e-03 -8.1673015978003283e-01
    8.8562316975307528e-03 -9.6477677130298001e-01
    9.2992550305720789e-03 -1.3625010446771946e+00
    9.3381188960037793e-03 -1.6213504564169019e+00
    9.1666694495754868e-03 -1.5735006328821117e+00
    8.9869541961774633e-03 -1.2923976495340868e+00
    9.5833465444558792e-03 -9.5406944062040178e-01
    1.2120299039855521e-02 -5.6687225439525379e-01
    1.6977616163076952e-02 -3.5208003351222666e-01
    2.4633077718312271e-02 -2.2583761615769252e-01
    4.2614430232243733e-02 -1.7434618849206607e-01
    9.6541666077123431e-02 -1.5546444271916665e-01
    1.7805907776038321e-01 -9.9557240405130462e-02
    1.2615090814976140e-01 -1.7483764132301663e-01
    3.0195168747629959e-02 -3.5133512686662738e-01
    1.2838865862074837e-02 -6.2196773923453608e-01
    9.3565603933405475e-03 -7.3971711958859643e-01
    8.9150449576062048e-03 -8.2498199083487000e-01
    1.0190745038837063e-02 -8.8753893302627729e-01
    1.0626799222888778e-02 -7.2620419195968244e-01
    9.1965767933243243e-03 -7.4714907963195576e-01
    8.9205415455900720e-03 -9.3156949571649761e-01
    9.0467479055009771e-03 -1.2748754643851652e+00
    9.3075718555214321e-03 -1.5825082052732018e+00
    9.0156782999185996e-03 -1.5054335973875252e+00
    8.7798716994517238e-03 -1.2266110233520331e+00
    9.6750721168629358e-03 -9.2274874258700734e-01
    1.2039495479342778e-02 -5.5324508416387719e-01
    1.7100634696050634e-02 -3.6114343189801906e-01
    2.4246973661795696e-02 -2.3460188715693667e-01
    3.3444931448427348e-02 -2.2273265566562067e-01
    8.7902074810616432e-02 -2.0796943397930762e-01
    2.1505202197819243e-01 -1.4827376375684495e-01
    8.4899373178071003e-02 -2.3833483252503174e-01
    2.4958394546891718e-02 -4.9857530335781036e-01
    1.0992004901486826e-02 -6.8879648591481757e-01
    8.8788218671407657e-03 -7.6333480231984074e-01
    8.7962500300422675e-03 -8.3639724913219404e-01
    1.0215249727976609e-02 -9.0486282611377156e-01
    1.0806977137571942e-02 -7.7898281060865981e-01
    9.9497263178486388e-03 -8.6477851743860146e-01
    9.3678811699073796e-03 -1.0974158783356442e+00
    9.5309624824535012e-03 -1.4685580320380054e+00
    9.6438035814460747e-03 -1.6723468847512504e+00
    9.0046588497906584e-03 -1.4568137853199725e+00
    8.9457947933964145e-03 -1.1688422215762930e+00
    1.0100744862199829e-02 -8.5183418577403947e-01
    1.2772216935206452e-02 -5.1145355664887471e-01
    1.8706031534743268e-02 -3.3656052175196610e-01
    2.5821851707575200e-02 -2.2741982802788993e-01
    2.4760139040583676e-02 -2.1765407139865037e-01
    6.0474664045362760e-02 -2.1183024780135448e-01
    1.3289849675294554e-01 -2.7532509802169813e-01
    2.9713410171752028e-02 -3.5311649043496929e-01
    1.4679433814195035e-02 -5.7167783865225474e-01
    9.6109540553113073e-03 -8.2406324589520696e-01
    8.7140025487388879e-03 -9.7161939778080009e-01
    8.6156348007569612e-03 -1.0614598448640222e+00
    9.0172528834481114e-03 -1.1195582735040861e+00
    9.6405636450970639e-03 -1.1438519788591424e+00
    9.8792010325633259e-03 -1.3085940015772881e+00
    1.1200458373066312e-02 -1.8472726191772393e+00
    1.2771777386922140e-02 -2.4873928344926601e+00
    1.3223613592365988e-02 -2.5070136810208536e+00
    1.0343350116743632e-02 -1.6724927479739753e+00
    9.5494536475953899e-03 -1.1363894298057731e+00
    1.1330086920579140e-02 -7.3704641787074698e-01
    1.4934701542580048e-02 -4.2779437453997449e-01
    2.2742188169954165e-02 -2.9824241087497155e-01
    3.4826219796126850e-02 -2.0508233435810452e-01
    2.4021830965549218e-02 -2.2725680961402497e-01
    5.0478587965984055e-02 -3.3217636913369858e-01
    2.7075035272501689e-02 -3.4311430873033910e-01
    1.5458971421566192e-02 -4.0271772059431071e-01
    1.2149964513524247e-02 -6.7622358360885648e-01
    8.9903840012799888e-03 -9.3979648178743302e-01
    8.3181351035492169e-03 -1.0927620829585827e+00
    8.2058148807264905e-03 -1.1534480001780221e+00
    8.3510015916153941e-03 -1.1939288569733340e+00
    8.8841223058542858e-03 -1.3091589689140806e+00
    1.0136903390136039e-02 -1.6959869955960474e+00
    1.1850135084997311e-02 -2.3884201037654682e+00
    1.3526577973128702e-02 -2.8812996486467157e+00
    1.3603701309892951e-02 -2.7363959182346682e+00
    1.0589605268705244e-02 -1.8466684133828406e+00
    1.0518631807165528e-02 -1.2954077032014553e+00
    1.3023639951729579e-02 -7.7792602437928859e-01
    1.7529828222271480e-02 -3.8224492284671863e-01
    2.8074645032392202e-02 -2.7394998132166692e-01
    4.3678882696182329e-02 -1.7839610702681916e-01
    2.5955027178093205e-02 -3.4566827862370220e-01
    2.2247386450713690e-02 -3.8248311649832673e-01
    1.4379998445994486e-02 -4.0669688342372673e-01
    1.2026257730177087e-02 -4.9220315157138178e-01
    1.0559325621008310e-02 -6.8462085719784183e-01
    9.4004634373554136e-03 -8.8720593612724097e-01
    9.4229365470144873e-03 -1.0532588222790704e+00
    9.3384989674138510e-03 -1.1207937773739716e+00
    9.8728296928863521e-03 -1.2658135123795198e+00
    1.0904992116752655e-02 -1.6174266031044435e+00
    1.1226002032584866e-02 -1.9487304729497286e+00
    1.2048331571951015e-02 -2.4229598645883055e+00
    1.3103249374503471e-02 -2.8311497939723846e+00
    1.4308729835010978e-02 -3.0183093177062283e+00
    1.1282618576316225e-02 -2.0940708161346100e+00
    9.7429799137085261e-03 -1.4185651750897050e+00
    1.1332302575921147e-02 -1.0016795291328067e+00
    1.6938724198165792e-02 -5.7276229793350930e-01
    2.3397552380959398e-02 -3.5130095988748672e-01
    3.3432709357699902e-02 -2.4403698790473780e-01
    1.9909636012301384e-02 -4.1657298477693716e-01
    1.5623569838685684e-02 -4.0019032240432323e-01
    1.2399206623437178e-02 -4.5508205426997989e-01
    1.0527842439435890e-02 -5.0028326877120088e-01
    1.0030962487094683e-02 -5.4803238906448304e-01
    1.0050219222509454e-02 -6.1213227684436189e-01
    1.0444461353719712e-02 -7.0770950495802742e-01
    1.0772687737677261e-02 -8.7869122675965761e-01
    1.0048103803029871e-02 -9.9832682729041744e-01
    9.8436661137711549e-03 -1.1349682871205333e+00
    9.8640610121970927e-03 -1.3135044260976361e+00
    1.0787945206230829e-02 -1.7578323901124839e+00
    1.3197756001695322e-02 -2.5320214388001121e+00
    1.1893728107869029e-02 -2.3549249426538559e+00
    9.5934994506130227e-03 -1.7792591795324793e+00
    9.1313032427459747e-03 -1.4882748963993990e+00
    9.4252321129881956e-03 -1.1827788719666761e+00
    1.1418647271388058e-02 -7.8680752513541674e-01
    1.4516616630158127e-02 -4.8306272043316689e-01
    1.9795966863961265e-02 -2.9723441494249475e-01
    1.6216009214858773e-02 -4.5628286636222726e-01
    1.3790987004004739e-02 -4.5555841846794981e-01
    1.1414866836823072e-02 -4.8130562821744205e-01
    1.0122423195916466e-02 -5.0139924729940410e-01
    9.9243968163345731e-03 -5.2307300389705291e-01
    1.0023480289213276e-02 -6.2421830136288714e-01
    9.4510044452506062e-03 -7.5190924192633457e-01
    8.8185667785674500e-03 -7.9436483585579021e-01
    8.7025539951549862e-03 -8.2180794110113020e-01
    9.0001323732710730e-03 -8.7486063274761650e-01
    9.0109076455348377e-03 -9.8432419965360329e-01
    9.2178554109835463e-03 -1.0799223995223508e+00
    1.0041698661716211e-02 -1.3743055698687259e+00
    1.0532053175299755e-02 -1.8168674301680512e+00
    9.1637714349172752e-03 -1.6420983533584768e+00
    8.6972676694475441e-03 -1.4470139820152776e+00
    8.7140298565287350e-03 -1.2672057430794219e+00
    1.0027747727143108e-02 -9.6191683597876310e-01
    1.1779955947088789e-02 -5.7109204494883192e-01
    1.7534026302035027e-02 -3.6313719463330085e-01
    1.8767575756796467e-02 -4.2844767801956629e-01
    1.4816621803145301e-02 -4.5533520570178049e-01
    1.1823551618892873e-02 -4.6965040559924476e-01
    1.0538753446813719e-02 -5.1461792843707832e-01
    1.0292124650217381e-02 -6.4524146829463380e-01
    9.5445681647476424e-03 -7.9171926318532393e-01
    8.7436907589855863e-03 -8.1067609205039870e-01
    8.5341240030768640e-03 -8.0373330974228929e-01
    8.6212441246450982e-03 -8.0718204243552161e-01
    9.2775911134567284e-03 -8.3583407798082210e-01
    9.4719748164854255e-03 -8.7356478356396450e-01
    9.1240875613315311e-03 -8.8511295228347131e-01
    9.1666126951767471e-03 -1.0557522413863414e+00
    1.0342082075938588e-02 -1.6511076257241117e+00
    9.1228396892891143e-03 -1.5991301675098404e+00
    8.7078358221315977e-03 -1.4280404816293755e+00
    8.5391820004495633e-03 -1.2803843491512075e+00
    9.9629028086305142e-03 -1.0380064577070098e+00
    1.1036228305397107e-02 -6.0534328804170467e-01
    1.6576628379679104e-02 -4.0282441720786305e-01
    2.4196623470570520e-02 -2.9088892359429358e-01
    1.9618150554955385e-02 -3.9542263886256679e-01
    1.3858646395655162e-02 -4.4316054235491903e-01
    1.2968167588574853e-02 -6.2044350407013993e-01
    1.0757909641133644e-02 -7.9090669213619313e-01
    9.1488861939869690e-03 -8.0231643033581246e-01
    8.8692823402658268e-03 -7.9626170626701243e-01
    8.8771429341096362e-03 -7.8698269104784058e-01
    9.9788942560502664e-03 -7.7220753358237026e-01
    1.0286609230196827e-02 -7.1694026752062689e-01
    9.8392733484683088e-03 -7.4827948655139154e-01
    9.1397525273286227e-03 -8.6107702022832344e-01
    9.1660388644910634e-03 -1.1034622085334636e+00
    1.0462144086132845e-02 -1.7503732050846055e+00
    9.4158783363877552e-03 -1.6733085391430538e+00
    8.7602744852085940e-03 -1.3907873763486334e+00
    8.7446276931115972e-03 -1.2107482562579894e+00
    1.0232144585208628e-02 -9.2853853969822719e-01
    1.1913704667515767e-02 -5.7966717980046922e-01
    1.8541373220179871e-02 -3.7179423991600902e-01
    3.5555936090420522e-02 -2.0462871599151700e-01
    3.4831751145817574e-02 -2.6047598633857899e-01
    2.5405539346413770e-02 -4.4594527724263722e-01
    1.4997171085716890e-02 -7.7112549242694961e-01
    1.0665967609814680e-02 -8.7589045184620606e-01
    9.8981442638833919e-03 -8.4438819974779178e-01
    9.6106408894976111e-03 -7.9535212124756238e-01
    1.0462284466849507e-02 -7.6929450444488445e-01
    1.2214236506438820e-02 -6.7336380755096470e-01
    1.2699776984428330e-02 -6.9960517262123822e-01
    1.1218082199525149e-02 -8.4851108703764011e-01
    9.9887522607485738e-03 -1.0751719943905473e+00
    1.0622323197207888e-02 -1.6107259673442134e+00
    1.0590968852993442e-02 -1.9711380694625016e+00
    9.8617097623841469e-03 -1.8372209189494886e+00
    9.2233905621914979e-03 -1.4995395246320482e+00
    1.0251076129211856e-02 -1.2147000251116882e+00
    1.2282183746929609e-02 -7.3532427731443228e-01
    1.5504234990196880e-02 -4.6836792564193919e-01
    2.7022019255604199e-02 -3.1175962811563468e-01
    6.7434815234915263e-02 -1.5634328671782030e-01
    5.3405596887750546e-02 -1.6496561236043988e-01
    2.7867607560134587e-02 -3.8834315507332801e-01
    1.2535997115997817e-02 -8.4398542222202433e-01
    9.2508415968379672e-03 -1.0920342874777558e+00
    9.2410750400027681e-03 -1.1334471084562798e+00
    9.2739003894291242e-03 -1.0562402639066566e+00
    9.6192379683722740e-03 -1.0121650588331159e+00
    1.0608536671911195e-02 -1.0226471310207728e+00
    1.1140533780144863e-02 -1.1176164816955663e+00
    1.1456767733199171e-02 -1.4809525739292746e+00
    1.2048477241374636e-02 -2.0113721175757946e+00
    1.3008935246322762e-02 -2.5550081778294516e+00
    1.5316204865897173e-02 -3.2353914080385389e+00
    1.3451221499815608e-02 -2.7970337227919648e+00
    1.1912369965850293e-02 -2.0766122481250977e+00
    1.2038731483759297e-02 -1.2671829765139859e+00
    1.2920191757429396e-02 -6.0176935957729238e-01
    1.8232861436729930e-02 -3.8846690114150151e-01
    2.9403663113955977e-02 -2.3622859141412397e-01
    2.0924798252094476e-01 -1.5781272424763990e-01
    8.7571565468711060e-02 -1.5557406602821294e-01
    3.1428991690086658e-02 -4.1720962246328253e-01
    1.2770395035808645e-02 -8.7978390493202929e-01
    8.7206036671564416e-03 -1.1095953198618216e+00
    8.4264997236045379e-03 -1.1773208838690323e+00
    8.4961480059466982e-03 -1.2032570729017844e+00
    8.4869203469877912e-03 -1.1900021498078075e+00
    8.3796377524764411e-03 -1.1613756602363785e+00
    8.5020672940711618e-03 -1.2174699128405337e+00
    8.9326599696583318e-03 -1.4230708759856057e+00
    9.6943069069375335e-03 -1.7705604508164603e+00
    1.0770522908440884e-02 -2.1191204390754246e+00
    1.3030475288926480e-02 -2.6330052944620550e+00
    1.2571070715284237e-02 -2.3600663629963856e+00
    1.1069355006572350e-02 -1.5566976177678533e+00
    1.0067772575665709e-02 -8.2904451265537737e-01
    1.3410303125935026e-02 -5.4914816711231140e-01
    1.8733175030932796e-02 -3.2374031206855508e-01
    3.3216469847408392e-02 -2.1618540431413841e-01
    1.5665345143518944e-01 -9.2475128687067129e-02
    1.1481565915712545e-01 -1.3341707879710665e-01
    3.5407795320895767e-02 -3.7821064052264086e-01
    1.4753489181354230e-02 -6.9504868911450646e-01
    1.0783006814108927e-02 -9.4952708234407612e-01
    9.7832793394456215e-03 -1.0477081453867294e+00
    9.1596871216935161e-03 -1.1096440704994615e+00
    8.7936135459122551e-03 -1.1204856768634257e+00
    8.6718258239748061e-03 -1.1194164435847702e+00
    8.8413034101306291e-03 -1.1685502970838388e+00
    9.2567668582553674e-03 -1.3025667241661241e+00
    1.0457471925803626e-02 -1.5698379061803440e+00
    1.1344402257678604e-02 -1.7339823786038358e+00
    1.1873971514270559e-02 -1.6723726024931569e+00
    1.0630094337522804e-02 -1.2259794694268444e+00
    1.1037298939835490e-02 -9.2241091461205238e-01
    1.3097299859075045e-02 -6.6899885751303345e-01
    1.7388183488007646e-02 -4.4313963710452259e-01
    2.6341300577429883e-02 -2.8538861593945447e-01
    5.3922933446662123e-02 -1.8692279443382037e-01</input_scale>
  <output_scale>
    2.1052631578947367e+00 2.9999999999999996e+00</output_scale>
  <inv_output_scale>
    4.7499999999999998e-01 -1.4249999999999998e+00</inv_output_scale>
  <weights>
    <_>
      -2.6024077996167232e-02 -6.7056725470597579e-03
      9.5426879567719232e-03 1.0735599406629218e-02
      -4.9872338506594650e-02 1.6502180675609709e-02
      2.1442314909514693e-02 -7.3157847533734692e-03
      1.8904727950515017e-02 -2.8408482306249209e-02
      -8.0376914201105137e-03 1.4793846526794160e-02
      -1.1171033810597383e-02 -3.2946826829279394e-02
      2.0209060104236294e-02 2.9707901956826200e-02
      -2.5833700327136987e-03 -3.2134092027283491e-02
      -2.9072898587538577e-02 2.8612824418908626e-03
      -3.8329273075879411e-02 5.2346450476377171e-03
      4.2664788380411080e-02 3.9039038361100210e-02
      1.2787929030271504e-02 -8.1832326282070349e-04
      2.8498486798659007e-02 -3.5499424335204812e-03
      -2.1298766685006312e-02 -8.5863918726630968e-03
      -2.4981255184808659e-02 -1.9499678190556188e-02
      1.5713680290191944e-02 -2.5326807252678218e-02
      3.8496243987895772e-02 5.2724346884373274e-03
      3.1926240818446347e-02 5.4765961971774456e-03
      2.6911906239613381e-02 8.7029955174033370e-04
      -2.2894464293319268e-02 -2.7843614562203672e-02
      1.3018660407727579e-02 3.3072549211691131e-03
      1.3335929761504542e-02 -6.9695939432537898e-03
      3.4956257365635852e-02 2.0803689979268764e-02
      -2.1719546670289205e-02 3.1822266417986321e-02
      -2.5786764064240433e-02 -6.7310911422976735e-03
      2.7141341257316681e-02 1.8944366128853231e-02
      -3.0552234962921958e-02 5.7057481890409115e-04
      -1.3384544422898392e-02 2.0098818543183222e-02
      -2.9408433016810884e-02 -1.0205395113137819e-02
      1.1690728601490754e-02 1.8295157905268245e-02
      -3.5072174994688191e-02 -3.6066176288554130e-02
      3.1933358174819654e-02 -2.7089145623129633e-02
      -1.9499699843136386e-02 2.1593061879915904e-02
      -2.8192018654990946e-02 1.8230358939537481e-02
      3.2038004852558727e-02 -3.4126403755468701e-02
      -2.5218678220019636e-02 -2.3746820733443599e-02
      3.5072494391823049e-02 1.4147754069238549e-02
      1.3330501162234273e-02 -3.5642499567617780e-02
      4.4726170676238249e-02 -2.1581835342837634e-02
      1.6270710758166679e-02 1.4169833777172210e-02
      9.5779706229142964e-03 -8.8919589503396856e-03
      9.4633034333742594e-03 9.3490654736106543e-03
      -1.0209417361562629e-02 -2.5859933165426851e-02
      9.1146493483087124e-03 -4.2090658470660486e-02
      -4.5681330149086478e-02 -1.9307918342133881e-02
      2.3862345450712287e-02 -1.2976541360936086e-02
      -6.4143673884039755e-03 2.7384465458231186e-02
      -2.8958016373117280e-02 -4.0132705375121959e-02
      6.8974637073619073e-03 3.1440567705672023e-02
      1.9098420659631354e-02 2.6934656988723316e-02
      2.0169735107611664e-02 -2.0889577933654514e-02
      -6.2783056412703256e-03 1.0361146896762551e-02
      -4.4214347723949450e-03 -2.0111803725302392e-02
      -2.0745796447189529e-02 -1.3431973617251868e-02
      2.1478745040159834e-02 -8.3678107135155902e-03
      3.4292950778302682e-02 2.6992104885430766e-02
      1.9685401526598648e-02 2.0709887552911165e-02
      5.9428109027924291e-03 -2.5607058106428150e-02
      -6.1601608808171983e-03 1.8119517805619552e-02
      -2.0336472457312300e-02 1.2582373378443193e-02
      -3.1101699534190268e-02 -2.1264727592240972e-02
      2.1064306326459250e-02 -3.2386893181124733e-02
      2.7324300105530389e-02 -1.0381491143253164e-02
      -2.3826476836365750e-02 -4.3848654844967611e-02
      2.2778960764457956e-03 2.5082990134511308e-02
      -1.1121409661958096e-02 -5.9685113125304947e-04
      -2.3654432926985907e-03 -6.8228334811231209e-03
      -2.2410248739995739e-02 -9.3709819855069838e-03
      -1.5539573670291079e-02 3.6106129201948077e-02
      -9.4027785905148372e-03 -2.5807789899595597e-02
      -1.5909655092058637e-02 1.9102094171293327e-02
      3.1323921176008421e-02 2.7536723614014168e-02
      2.9896854982026103e-02 -1.5940906725443786e-02
      2.3737038841119388e-02 3.4231745393183299e-02
      -6.9713584942266808e-03 3.2063176527226907e-02
      -1.7270767325583546e-02 -1.8363309610377257e-02
      2.7821291610527304e-02 -6.7705573420142910e-03
      2.6692640308348305e-02 -1.3754763985441804e-02
      2.5987342816550913e-03 -4.0226554479811131e-03
      1.3357633780140904e-02 -1.0297014265483760e-02
      -2.2340076334191970e-02 -2.5272632991583589e-02
      8.7390262107456401e-03 8.7003491866696377e-03
      -3.0773134503794534e-02 -1.7909717448125806e-02
      -2.7134663292108275e-02 -1.5905415799307217e-02
      2.4345897477198345e-02 -2.0812339559864061e-02
      2.4886846381130229e-02 1.7070317692430816e-02
      -9.8340551205175833e-03 2.7233183758142536e-02
      -1.6983541174314963e-02 -2.2062137818062794e-02
      -2.4165101567506318e-02 7.3392116219546345e-04
      3.7918875772740085e-02 -2.3928197869465470e-02
      -8.9020905007737849e-03 -3.3082395219288581e-02
      -1.8010848515502151e-02 2.7055994469369966e-02
      -1.6227669210249606e-02 2.4607431214843798e-02
      1.1160957237082708e-02 -3.2487698729811512e-02
      1.5662451603481254e-03 2.1678041341347758e-02
      9.9654185675093834e-03 -6.1725174142396024e-03
      4.7499159887850716e-03 -1.2279299571012110e-02
      2.6719740499529500e-02 -2.8266824193524782e-02
      3.5720524972754661e-03 -6.0664147817897232e-03
      -6.4943039740899836e-02 -3.3760832565911836e-02
      9.0261168318747625e-03 5.4682522162586934e-02
      -1.2121820274259314e-01 4.9089197597769009e-02
      5.1523074289442146e-02 -3.2268482969645594e-02
      6.5924805859367330e-02 -8.0279962941385591e-02
      -2.5299870719267887e-02 4.7497573022992130e-02
      -5.9685321250738457e-02 -7.5552879037781628e-02
      3.4675945018453461e-02 8.2980612757481725e-02
      2.2951577285452648e-02 -1.0507313829266192e-01
      -6.3575912363101506e-02 1.5892743378630232e-02
      -8.6137281465557020e-02 2.3182720060153327e-02
      1.0040929960296058e-01 9.4963118692313414e-02
      4.6510612760353370e-02 -5.3169547590155714e-03
      6.9900009696745646e-02 -1.8185733734215996e-02
      -4.9845829281110671e-02 -3.6436086033912726e-02
      -7.7423648474873888e-02 -3.7346147702350951e-02
      2.2376751731074163e-02 -8.7811667986879297e-02
      9.4632233478523925e-02 4.2653167237031879e-02
      1.0203409593888527e-01 3.0579472496483174e-02
      8.9234619711672097e-02 1.1902444322065218e-02
      -7.6256062275503217e-02 -8.9799478002385566e-02
      1.3245774401497394e-02 -7.4310340562674685e-03
      2.9257820534362086e-02 -1.2400636090430480e-02
      1.0254809632854067e-01 7.1780414590304625e-02
      -7.2891597233158606e-02 8.8090269439695557e-02
      -6.4743016172506621e-02 -2.1774875133287453e-02
      8.0410130498003635e-02 5.4287390660793119e-02
      -7.4601726077887370e-02 -3.1826740350095493e-02
      -7.5149451935095701e-02 5.5484995488548738e-02
      -8.8651305262789942e-02 -5.2464735508191744e-02
      -3.1718816671053338e-04 5.8892322663112416e-02
      -9.3551017831005209e-02 -9.1456667067186248e-02
      9.7164830613568440e-02 -8.6738638747304281e-02
      -5.3673319131433507e-02 8.3246397300181310e-02
      -7.6282470659307974e-02 7.7836046685205856e-02
      8.0536616369174599e-02 -1.1054681603599674e-01
      -8.5580294838662432e-02 -6.9379745103000906e-02
      8.8110383597555075e-02 3.4022775860854296e-02
      4.4027174922385628e-02 -1.0657025998094677e-01
      1.2782461617547941e-01 -7.6624483350263409e-02
      5.8180189438584169e-02 3.6122892616738352e-02
      2.2755657402971495e-02 -3.2229754435121834e-02
      6.6910957808125216e-03 2.6771807748206748e-02
      -3.9289965547147192e-02 -7.3788417151391283e-02
      3.0403434700618893e-02 -1.3385111655179277e-01
      -1.3773772806817236e-01 -5.3815197518137084e-02
      6.2913172445146479e-02 -5.5416672296462695e-02
      -2.3515570203710878e-03 8.9411332571830301e-02
      -7.9965314659716819e-02 -1.1929943860596991e-01
      2.8943391808819729e-02 8.6579215475401913e-02
      6.1784369612047328e-02 8.4122527037764502e-02
      5.8378448234317051e-02 -6.1422989801775241e-02
      -3.6897286173435122e-02 2.3336074871985333e-02
      -3.0511866495805427e-02 -4.9047203668550657e-02
      -6.8252494366082661e-02 -5.5668171402009671e-02
      5.0211958473768102e-02 -3.9232527274537077e-02
      7.9371986287231647e-02 8.2161237115583249e-02
      6.9585068185191182e-02 7.5481801594442927e-02
      2.2759549961452304e-02 -6.4221108077335970e-02
      -2.8569615655565768e-02 7.1082294966599041e-02
      -2.5787398270449617e-02 2.8356585521276689e-02
      -8.9151215106522685e-02 -7.8616633103594333e-02
      7.5015776480270233e-02 -8.3191501055435574e-02
      7.7590184145823152e-02 -3.9846265566296939e-02
      -7.2132396547552977e-02 -1.1529402178564967e-01
      2.7775661241637047e-02 6.3140336052152232e-02
      -3.6722077988441314e-02 2.5741277231735677e-03
      -5.9307338523212011e-03 -2.4544305347711945e-02
      -7.3253784345421152e-02 -4.3372269227478694e-02
      -4.9853458145339855e-02 8.7623289748142499e-02
      -2.0315269720062198e-02 -8.8254196735585766e-02
      -3.2359329523901685e-02 6.5894962245864525e-02
      9.2613700031978746e-02 8.0559939643252476e-02
      8.2326335104927192e-02 -6.0579135385091624e-02
      8.1393361408305290e-02 9.1375214024860443e-02
      -4.5798503372592690e-02 1.0471912180626389e-01
      -5.6194192645989301e-02 -5.9318720748480498e-02
      9.2064607078341493e-02 -6.3974485556899966e-03
      6.0317026906425521e-02 -5.0072575065736140e-02
      7.7846159115581501e-03 -3.1621874052954586e-02
      3.6278639433028788e-02 -3.6084725743112257e-02
      -4.9326155939949601e-02 -8.7508061732818387e-02
      5.2883787347216644e-03 2.4566687818622972e-02
      -9.5303578981404694e-02 -6.2990227266233295e-02
      -5.3407155066454111e-02 -5.2069645091874714e-02
      8.0437459541817830e-02 -7.8953314553552090e-02
      5.1770004231123781e-02 5.4127162780323389e-02
      -3.1688347766102028e-02 9.9392560321199641e-02
      -8.1814898591340723e-02 -7.4645905435121132e-02
      -6.5335399260536484e-02 2.1957949112205315e-02
      9.7694776789544926e-02 -6.5110650904146597e-02
      3.2422749767109051e-03 -7.9412344310181945e-02
      -5.9700482838074054e-02 7.5927781361138424e-02
      -3.7514213982324893e-02 7.8354502293401421e-02
      6.1054516778211929e-02 -9.4757351720667793e-02
      2.1317381111766530e-02 6.2549779918605983e-02
      4.1249334904428309e-02 -2.9166041514189427e-02
      3.5122369287582569e-02 -2.3097021423495755e-02
      6.9706356329924238e-02 -7.4761424849143318e-02
      7.2521200513971313e-03 -1.4018477479575276e-03
      -4.2465023666218932e-02 -1.9112068410000061e-03
      3.4157744299239678e-02 1.6133390165401284e-02
      -1.0120482530312351e-01 3.5604850720523301e-02
      4.3991416497803394e-02 -4.3462770966748852e-02
      5.1928405837105562e-02 -9.4415641970309244e-02
      2.8002238785233518e-03 1.8197195278956961e-02
      -3.9775526317720793e-02 -4.7067203078001815e-02
      3.9054474520409541e-02 1.0266924872725790e-01
      -1.3014244442118647e-02 -1.3076906364402546e-01
      -1.1070291720297655e-01 -1.9024943062066375e-02
      -6.0455856514566197e-02 4.2422858948231966e-02
      6.1312392517643713e-02 6.0934610490640397e-02
      3.8957460844317421e-02 -1.8859293428689024e-02
      3.6670929101256543e-02 1.7017345609946381e-02
      -8.2590543382903198e-02 -1.3836254399887357e-02
      -5.6704013612804707e-02 -6.7960871917320670e-03
      4.3054900078117866e-02 -1.2381625818047437e-01
      6.6060375494826698e-02 1.2006215736600687e-02
      6.7172936791827190e-02 5.1601644398850790e-03
      7.2331333066806808e-02 -1.4570109334696536e-02
      -7.7403522806972436e-02 -9.0130124925775268e-02
      1.7213037197527876e-02 1.0867394722274770e-02
      3.3308672962883874e-02 -3.4703793496441655e-02
      8.7835405536084307e-02 5.9945647568445358e-02
      -3.8944190565135650e-02 1.0886440287867485e-01
      -6.5872868801180040e-02 -5.2729853952564791e-02
      4.1900007580955689e-02 5.7348468571384904e-02
      -4.5015050571673182e-02 -8.8875641350406841e-03
      -2.5278230591470996e-02 7.6456383578377543e-02
      -6.2897737929269198e-02 -2.0013627224804941e-02
      1.6665431296358706e-02 1.4470092696493573e-02
      -1.0617917054959120e-01 -9.1665727153106169e-02
      9.3079459771094580e-02 -4.4157530339844549e-02
      -9.5627374862615286e-02 3.9721286938492882e-02
      -1.3379476056776909e-01 2.8087842462940365e-02
      6.4915231118677738e-02 -1.0349561202901558e-01
      -2.8005604509470376e-02 -8.1380673558448899e-02
      1.2766211850212808e-01 -2.6697047327205493e-03
      2.5061364430520920e-02 -4.5509195008928041e-02
      1.0487338077157543e-01 -9.2401694278304677e-02
      6.7765544906814426e-02 5.8342719454834352e-02
      -6.5906198257029529e-03 4.7065200318282608e-04
      3.3153340600133807e-02 5.8885911037303312e-02
      -9.4052546371022026e-03 -5.8142110184786107e-02
      6.4839067086841342e-03 -1.1345056527715201e-01
      -1.0497033730591902e-01 -1.1293259713910155e-01
      6.6471757630701109e-02 -5.0891387473389789e-02
      -2.7279506285675652e-02 1.0635674058775992e-01
      -1.1448749851989473e-01 -1.2366097873267284e-01
      7.7184340985235892e-03 5.5994941936712984e-02
      3.0388867714470066e-02 3.5253005053121178e-02
      3.3117964822706819e-02 -8.8822842872054580e-02
      -2.3082200452732454e-03 -2.5216123563744882e-05
      -5.8900073310873017e-03 -7.9085855460664031e-02
      -4.3365482416159062e-02 -2.7435291321455443e-02
      3.9688939780715804e-02 -2.0040268208449726e-02
      4.6192628800695919e-02 9.9405623875665927e-02
      3.6867286647071916e-02 2.9627928300072656e-02
      -1.3704907383320903e-02 -8.2919164692552394e-02
      -5.9370909614991259e-02 9.6423379733031653e-02
      -4.0622543880369490e-02 4.2092826538990991e-02
      -6.0617454759258650e-02 -5.1739732220218916e-02
      6.6669591959417698e-02 -1.1404462415263734e-01
      5.5434518109504283e-02 -5.8735691741828806e-02
      -7.2938688656568648e-02 -8.9890008220286380e-02
      -5.0401335524608241e-03 8.3015822014688545e-02
      -5.9983734116970416e-02 -2.2134300043374844e-02
      -2.3357705177123305e-02 -5.2306322799047636e-02
      -3.6441587494358468e-02 -4.4068906766757173e-03
      -7.3092035580473072e-02 7.7387827837968506e-02
      -3.6537236845635958e-02 -6.9658413726201185e-02
      -4.5021816899917036e-02 3.5392891992308023e-02
      1.0406354190438981e-01 5.1045599577709121e-02
      6.0899792643848538e-02 -3.5064481172636330e-02
      2.4787037743165145e-02 8.9826424114663531e-02
      -9.5921273217266928e-03 1.1393174407587173e-01
      -1.5250714434340288e-02 -2.7850415594846460e-02
      1.1888844911570896e-01 -1.1648610561007270e-03
      9.3132401165952075e-02 -3.1341542402259441e-02
      2.5142699551780001e-02 -9.6431384962577214e-03
      4.8044063103626258e-02 -1.5018526857875978e-02
      -7.3315881171303998e-02 -6.8445195014124105e-02
      2.8489796855009311e-02 -1.1275745137727290e-02
      -1.1101298300694398e-01 -5.0484314702723687e-02
      -1.1710434120203021e-01 -2.6634964643228353e-02
      6.0377636913797994e-02 -3.6360230484244575e-02
      6.5199568156517215e-02 5.0185149964663556e-02
      8.1231491009757951e-04 9.3929098127447430e-02
      -2.4645595913483885e-02 -4.0505716428637026e-02
      -4.4408061691894547e-02 -7.7378232301910915e-03
      1.2360341865317666e-01 -1.3039589517571457e-01
      -2.0569880959362786e-02 -4.1390753500879382e-02
      -2.2815948887127603e-02 2.3590706676983118e-02
      -1.2190991467986977e-02 6.2954086538241458e-02
      2.3857287115668122e-02 -9.6547323083108982e-02
      -8.3572823360122082e-03 3.4544981676633578e-02
      4.9629993632742134e-02 -7.2209322080105283e-03
      5.8618171777612060e-03 -1.8163039132202928e-03
      9.9291068776445737e-02 -1.3468789544951310e-01
      -1.1646723527416684e-02 -1.5512504919403222e-02
      -5.6554847911126596e-02 -3.8790271091550376e-03
      2.9282946142226381e-02 4.4377518352612067e-03
      -1.0780672246347152e-01 3.1594152720834857e-02
      4.8730152535069418e-02 -5.1255630378166217e-02
      5.2465843800139828e-02 -9.5743733114231927e-02
      -8.2548741678492160e-03 1.9877687715257247e-02
      -4.2325701819059827e-02 -5.6827063994889238e-02
      4.3177529627263199e-02 1.0515292687762781e-01
      -7.0326491740913700e-03 -1.3716276762197618e-01
      -1.2130472877142791e-01 -1.0161127346387968e-02
      -6.7315459523060978e-02 3.4320057992316105e-02
      7.5884874564453419e-02 7.5281138380618409e-02
      3.2727994058180825e-02 -2.2045753942234098e-02
      4.5014273266565381e-02 1.4998522848701365e-02
      -7.9525691737763859e-02 -2.1007921898361332e-02
      -6.6448030994244581e-02 -1.7379315905684103e-02
      3.8913214517265524e-02 -1.3006543109166646e-01
      7.4837716505576080e-02 5.1101787895374232e-03
      8.3704944663439265e-02 3.4979943730881241e-03
      7.2315880552842313e-02 -1.4688583836746287e-02
      -8.3048156613285642e-02 -9.6201669901605169e-02
      2.0317041673248003e-02 1.1921393588890581e-02
      4.0906737427046917e-02 -2.8290338369852900e-02
      9.3436019699266473e-02 6.7490851942256652e-02
      -4.4719799189610422e-02 1.1232844805275263e-01
      -5.8715955748639199e-02 -5.0449331624558780e-02
      5.2535925368380261e-02 4.7228499951179739e-02
      -5.3265233655864622e-02 -2.0944999975862915e-03
      -2.3935553969325767e-02 8.2327497415087061e-02
      -7.7415386185546289e-02 -1.6116595634648727e-02
      1.8755002094452605e-02 1.7323873846130870e-02
      -1.0479744146910308e-01 -9.9363168380535383e-02
      1.0050046529938991e-01 -5.3233859688698162e-02
      -9.5929466589473267e-02 4.2217187590798837e-02
      -1.3949753202687248e-01 1.8894278514834020e-02
      6.9736337750310851e-02 -1.0877868252462350e-01
      -1.2789690351366026e-02 -7.4786422258637020e-02
      1.2687373220416240e-01 -2.3850407055729808e-03
      3.5078709882873989e-02 -3.4545741415645377e-02
      1.1505388127690795e-01 -9.4742821232928182e-02
      7.5953202399393793e-02 6.3713923548973678e-02
      1.5801768673257355e-04 -6.6151827058913894e-03
      2.0828780532678975e-02 4.9667069142430895e-02
      -1.0616052245188998e-02 -5.6706613050500433e-02
      1.6015750824649719e-02 -1.1991802888468202e-01
      -1.1942569083638820e-01 -1.1722492378648118e-01
      6.3029404129212416e-02 -4.7967649691713105e-02
      -2.4208711669868693e-02 1.0407056618310134e-01
      -1.1594800359138692e-01 -1.2863626607123893e-01
      1.4246207054956787e-03 7.3215958238692078e-02
      3.3433339117443048e-02 2.0190686299343244e-02
      4.8409820889547955e-02 -8.1357938101890528e-02
      -1.4369730004315859e-02 8.6626821419023343e-05
      -2.2853688838109240e-03 -8.4831616007064278e-02
      -4.5469495028151868e-02 -3.3117813449858723e-02
      4.8750308623405715e-02 -1.4709948122978784e-02
      6.0055462577995961e-02 9.6357992424616332e-02
      2.8533892799061655e-02 2.9933506912343182e-02
      -6.8793733732675829e-03 -8.9685818600156855e-02
      -5.9258836146187821e-02 9.7589780274902019e-02
      -3.6054025342939520e-02 4.1001352899190602e-02
      -6.8219204416315460e-02 -6.4128741519500668e-02
      7.5994504343160407e-02 -1.1162409215648830e-01
      6.3726026527728102e-02 -5.7169598982040853e-02
      -7.8212157704698360e-02 -9.7227101454956694e-02
      -6.6355827867032148e-03 8.2751713575057922e-02
      -5.8093833141858828e-02 -1.9865247726674806e-02
      -2.9574591689994115e-02 -5.3301824625761308e-02
      -4.5085263334402638e-02 -1.2271910363487187e-02
      -7.0400336901947053e-02 8.2372979767559779e-02
      -4.0088589228080854e-02 -7.9460439506254005e-02
      -4.5395976451835400e-02 3.6780881155591812e-02
      1.0690755194838511e-01 6.2407395705841189e-02
      6.7729981487532287e-02 -4.9298446159201287e-02
      1.5838151161727026e-02 9.7116880513753126e-02
      -1.7227084062808838e-02 1.1943789294905088e-01
      -1.2971551294844091e-02 -3.0449011281505411e-02
      1.1806514920893629e-01 -4.8034068115528914e-03
      9.5182753069366147e-02 -2.6968885864132489e-02
      1.7321918313820253e-02 -1.3957651833710581e-02
      5.0975937505178530e-02 -1.7400206478844205e-02
      -7.2117864144844238e-02 -7.7324722032422910e-02
      2.7324489639928905e-02 2.3697979636912056e-04
      -1.1743788367627669e-01 -4.1016156702147463e-02
      -1.3357538249417644e-01 -3.7027757296484734e-02
      6.6198592755285487e-02 -4.0535654273983097e-02
      7.2728200512295990e-02 6.4389772023932021e-02
      9.8985675281588440e-04 1.0016779376050100e-01
      -2.6190924490610990e-02 -5.0298638025107339e-02
      -4.9925986928061251e-02 -6.6144438440194015e-03
      1.2109078203872660e-01 -1.2981543094885034e-01
      -2.0694529367554077e-02 -5.6757631533023482e-02
      -2.6909904601254510e-02 1.0664643329342569e-02
      -1.0474411259536173e-02 5.5360549259347400e-02
      3.1925992442026471e-02 -8.9483631310434505e-02
      -4.3434648335125819e-03 4.4201655319094667e-02
      5.7985121524776369e-02 -4.5367483870425327e-03
      4.4824269425977155e-03 -7.5360486994912167e-03
      1.0367409769906628e-01 -1.4411364940199259e-01
      -1.0662833881436035e-02 -1.9652848231835066e-02
      -5.7767896088626952e-02 -2.2012959772413545e-03
      3.4627759608388674e-02 4.7170698925238430e-03
      -1.0934708052298313e-01 3.0114180199802276e-02
      4.6557215024395700e-02 -4.9857848742217784e-02
      5.3012128656532882e-02 -9.4432257336553291e-02
      -9.5102155207578750e-03 2.5551036315292323e-02
      -4.6070543884899423e-02 -6.4845028694891088e-02
      4.1041852286745957e-02 1.0694273511908213e-01
      -5.1664740507096144e-03 -1.3596641303193441e-01
      -1.0916019169274602e-01 -1.1114306074372367e-02
      -6.8323053913008469e-02 3.4773404855284663e-02
      7.7369399211720230e-02 8.0617805220508029e-02
      3.4444941859653390e-02 -2.1785700210098385e-02
      4.0051664529919470e-02 1.4380209541320670e-02
      -8.3316030702750898e-02 -1.9552113838830005e-02
      -7.3619429489831550e-02 -2.3308448574273513e-02
      4.2794640695786264e-02 -1.2916717328705654e-01
      7.5924173861695518e-02 5.1503530899828492e-03
      8.0112324595801462e-02 -3.3961030505621579e-03
      7.0240325346681121e-02 -2.2060557338316106e-02
      -8.2657018813268202e-02 -9.4233524020773576e-02
      2.1307024191818787e-02 1.1226487627484570e-02
      3.6110103139327755e-02 -2.8627853842324483e-02
      9.7088090271233510e-02 6.9777078304819953e-02
      -4.8994916016251756e-02 1.0490891033082403e-01
      -6.1314214257559708e-02 -4.5617874764124947e-02
      6.0465517662822918e-02 4.9269681699208270e-02
      -5.7839568270455895e-02 -7.0874388816430760e-03
      -2.4755662610916399e-02 7.8285606970325952e-02
      -7.2936092286018800e-02 -1.1040388275968718e-02
      1.6098022073448948e-02 1.8009590587203379e-02
      -1.1060123294673242e-01 -9.6139202828469092e-02
      1.0500069558251385e-01 -6.3094312488143081e-02
      -9.3185556741687173e-02 3.4334206739436511e-02
      -1.3818768412454696e-01 1.6535634960838805e-02
      7.1093444893573013e-02 -1.0748173797597869e-01
      -1.5397559154999739e-02 -7.6179084510539521e-02
      1.1948690917192584e-01 -5.4888222524002066e-03
      3.4753760579714688e-02 -3.0284005014190079e-02
      1.1711346606258617e-01 -9.2342232868643584e-02
      7.7063956358084898e-02 5.9853084882039033e-02
      3.5064829966566066e-03 1.2164352899014682e-03
      1.9453896394165230e-02 5.2604409562263671e-02
      -1.6266511823630730e-02 -5.5510641712408638e-02
      1.3981556839126365e-02 -1.1888729619963287e-01
      -1.1709463729553696e-01 -1.1533305607267968e-01
      6.8730943817310999e-02 -5.4849572217816868e-02
      -2.4284726066098876e-02 1.0813601967111361e-01
      -1.1909176304527289e-01 -1.2205944795031647e-01
      8.7527537776825994e-04 7.5194548255081081e-02
      3.3209305406423549e-02 1.6438133309374468e-02
      4.1731470613997519e-02 -8.7039222497486024e-02
      -1.8241257615712572e-02 5.5462701123027980e-03
      1.6364609693283785e-04 -7.8839178719221192e-02
      -4.4454703910322420e-02 -4.0498156558369865e-02
      4.3199464336833672e-02 -1.1293219642682654e-02
      6.7939502802823917e-02 9.9845537822131625e-02
      2.4329858919255615e-02 3.2809244675118428e-02
      -1.4628205411024213e-02 -8.6656468969467187e-02
      -5.5592462629791922e-02 1.0010317397969404e-01
      -4.0147121875932244e-02 4.2967617643773007e-02
      -7.7482758134100438e-02 -6.4846276542408043e-02
      7.0438950220754568e-02 -1.1693490276059730e-01
      6.9142106557217003e-02 -5.8521912615790074e-02
      -7.2353081995939039e-02 -1.0148795774406448e-01
      -4.0036811737307453e-03 8.0673536986956368e-02
      -4.7585485880008195e-02 -2.0758518855334269e-02
      -2.5005876120586808e-02 -5.5906871216070159e-02
      -4.6233612552256019e-02 -1.2951693838423851e-02
      -6.8835124600738984e-02 7.9317954487043693e-02
      -3.4469149208548079e-02 -7.8472438740114725e-02
      -4.5536799058093935e-02 3.8450755896119425e-02
      1.1185789050667878e-01 5.8008427279382831e-02
      7.0816906745617358e-02 -4.7509642412883211e-02
      1.8750609656968901e-02 1.0402809277092005e-01
      -1.5307464232116199e-02 1.1434622062487568e-01
      -8.1249479298818594e-03 -3.2520038968475579e-02
      1.2012167752134412e-01 -8.4073543053757027e-03
      8.9646513414633616e-02 -3.2482992450360751e-02
      2.1118963365812853e-02 -1.9681119506978876e-02
      4.3714865379130989e-02 -1.5028586295252713e-02
      -7.5591109244319263e-02 -7.0278493935240605e-02
      2.7684563221191925e-02 -2.8035604363025796e-03
      -1.1865034708983037e-01 -3.9637610650377152e-02
      -1.3673236437022182e-01 -4.1818567104526250e-02
      6.5753393113833020e-02 -4.0481796691635853e-02
      6.6059666816771320e-02 6.2309225953872872e-02
      7.3664641529661993e-03 1.0604484037741434e-01
      -2.2940357612340357e-02 -5.5364444524955030e-02
      -5.5670607105669158e-02 -1.3703766197685733e-02
      1.2255205527158670e-01 -1.2900811929965209e-01
      -2.6439016744435367e-02 -5.2506705505791486e-02
      -3.0548741016108594e-02 2.5909647298758237e-03
      -1.2394762362564244e-02 5.7148708429473290e-02
      3.1716211199222306e-02 -9.5236765662778708e-02
      -6.2290037456349092e-03 4.6051024883452939e-02
      6.0610527099421975e-02 -2.7590391210196214e-03
      4.8954407186652451e-05 -7.7477189359688664e-03
      1.0538750075072817e-01 -1.4252190258706945e-01
      -7.6699391534804442e-03 -1.3136572891111704e-02
      -5.3325208331811175e-02 -5.4946162643934923e-03
      2.8649345060240437e-02 3.9011959193642025e-03
      -1.0665543036053449e-01 3.3687903811940041e-02
      4.6143491472342826e-02 -4.4910217180387860e-02
      5.9111667811524486e-02 -9.0689523583199885e-02
      -1.1316037609425547e-02 2.3437928664173720e-02
      -3.8888030757638539e-02 -6.1895442821587487e-02
      4.7985128066133885e-02 1.1014671230630520e-01
      -9.2341315326414913e-03 -1.3815485020192977e-01
      -1.1165799132492479e-01 -1.3100636899799047e-02
      -6.5464625690814918e-02 3.0397558089949803e-02
      7.8298166308859954e-02 7.3660441327139697e-02
      2.9756409292034786e-02 -2.2904508729694940e-02
      4.5723896677104345e-02 1.6905223342583160e-02
      -7.9795424158998901e-02 -2.3265088668580725e-02
      -7.0720986335031155e-02 -1.6797550563008787e-02
      3.5838656763392637e-02 -1.2284069529423168e-01
      7.6468299451505961e-02 7.0416535281204555e-03
      7.5883115148370289e-02 -2.2074193223122185e-03
      7.2590588064805006e-02 -1.8670903702528351e-02
      -7.3961542551446560e-02 -8.8596475569492322e-02
      1.8580928152550871e-02 1.1957037725252686e-02
      4.3842785407937082e-02 -3.0880844447625084e-02
      8.8802253572749720e-02 6.6170896424102787e-02
      -4.9401038629770549e-02 1.1236663310380046e-01
      -5.7860144552170437e-02 -4.0543043371677037e-02
      6.1645297793057913e-02 5.2237740892882883e-02
      -5.3799602748467568e-02 -7.5803032555818153e-03
      -2.0873003734277445e-02 7.9031116276068639e-02
      -6.9515159799139165e-02 -1.5812011247265265e-02
      2.2391813062527549e-02 1.1752692506511873e-02
      -1.0364093838744334e-01 -9.1311297519586082e-02
      1.0029235317675128e-01 -5.6334194178938451e-02
      -8.3363387756365523e-02 3.4803455688130744e-02
      -1.3235230811717702e-01 1.6056618046766509e-02
      7.2584732393845566e-02 -1.0027496852164654e-01
      -2.0819151091740415e-02 -7.8173760088689870e-02
      1.2297753235222256e-01 -1.2725507915466649e-04
      3.1270286158286004e-02 -4.0377470383606909e-02
      1.1363688161803694e-01 -8.9540237425963995e-02
      7.4537920699672452e-02 5.6835859980430135e-02
      -8.0202821013698798e-04 -4.4260040831403486e-03
      2.6116347419263681e-02 4.9005226607958870e-02
      -1.4747999901300466e-02 -5.2214871524501244e-02
      1.3034851642691265e-02 -1.2167700975372710e-01
      -1.1435395033917374e-01 -1.0987483540892126e-01
      6.8366060454207622e-02 -5.1531053665907663e-02
      -2.1976977976596240e-02 1.0674683941674123e-01
      -1.1266407451242011e-01 -1.2595291041311910e-01
      1.1189663382659793e-03 6.7321612562109445e-02
      3.5723040365426541e-02 1.9220823675895379e-02
      4.4363057001065770e-02 -8.1390745611159582e-02
      -1.8795705977121994e-02 1.0089309953191905e-02
      4.8840220183215613e-03 -8.0427175777383064e-02
      -4.7425060538688162e-02 -3.0134477310888703e-02
      4.3720636985482508e-02 -1.2824444166547187e-02
      6.5116113008612822e-02 9.6714736363579162e-02
      2.8953737585141387e-02 2.3072594553007902e-02
      -1.0714277273886618e-02 -8.8034173844057734e-02
      -5.6852585830708346e-02 8.9193661978518385e-02
      -4.4481739614401723e-02 4.6982476337032571e-02
      -7.2487203005228873e-02 -6.1836357025800683e-02
      7.3146079853828802e-02 -1.1042170796654437e-01
      6.6616784820729857e-02 -5.7170899600864557e-02
      -7.1563945441046356e-02 -9.5926719024816240e-02
      -8.6036504286729279e-03 8.1648402068582801e-02
      -4.8552453277260439e-02 -1.5818742835636650e-02
      -3.0629854363404686e-02 -5.0936032822919745e-02
      -4.9792212288392583e-02 -1.4903539417471840e-02
      -6.7211295208206290e-02 8.2437068539242694e-02
      -3.9163348835734649e-02 -7.1275231030228023e-02
      -4.7353374771327381e-02 3.8267374712181702e-02
      1.0228049380748820e-01 5.9753891459088652e-02
      6.4473130375188828e-02 -4.3322618896743569e-02
      1.9807720533232501e-02 1.0219490359835993e-01
      -7.9004870925198940e-03 1.0858433947175986e-01
      -2.5874235507508596e-03 -3.3957860766647682e-02
      1.1831729232216738e-01 -4.6635149260296988e-03
      8.5323337768324389e-02 -3.4133552425657125e-02
      1.1920691950172691e-02 -2.1248800086290775e-02
      4.8152316517115087e-02 -1.4092567084498608e-02
      -7.5161268982483154e-02 -7.0073561350472616e-02
      3.4408160983348458e-02 -2.9638768335788759e-03
      -1.1393239858270006e-01 -4.2328390043108496e-02
      -1.2517663226249601e-01 -3.8253726941067115e-02
      6.6315531196003752e-02 -3.7246477578554579e-02
      6.4137397570937560e-02 6.4775527740127556e-02
      8.5398598540898096e-03 1.0110299657369076e-01
      -2.2235344572670165e-02 -4.6822484098900156e-02
      -5.1107558107176397e-02 -9.0683819972919976e-03
      1.2170146075737846e-01 -1.1753403944596513e-01
      -2.1577610731580953e-02 -5.2674696787306470e-02
      -2.1978460884012497e-02 1.3683812203463106e-02
      -1.6523435936394965e-02 6.0698580425211840e-02
      2.1699401692772045e-02 -9.2332732514555121e-02
      -1.0827371323521934e-02 4.4959865906308433e-02
      5.1213002577934125e-02 1.0147423254890191e-03
      2.7411840970427578e-03 -7.6117143071448151e-03
      1.0609113826053355e-01 -1.3240639474563029e-01
      -9.1572931658674313e-03 -1.5007255352444879e-02
      -4.2890834301500258e-02 -1.8872371204237085e-03
      2.7826694001766544e-02 -1.6609760387601268e-03
      -9.6214548833718230e-02 3.7398127215324498e-02
      4.5178046214475458e-02 -4.2337039772657889e-02
      4.5757436689513285e-02 -7.9670462690093896e-02
      -5.0143194843779099e-03 1.5693926263337120e-02
      -3.6759190157482920e-02 -5.3676312228000379e-02
      4.4935493883596425e-02 9.6866095524866525e-02
      -4.9846575785159651e-03 -1.2107349806599381e-01
      -1.0243951548645271e-01 -6.4210956742320616e-03
      -5.4042672177730150e-02 3.0550811705083617e-02
      6.6884438874741145e-02 7.0194119760843346e-02
      2.3416173324195114e-02 -1.9119504428834307e-02
      3.7418228876909820e-02 1.1817615818356131e-02
      -6.8928020265596343e-02 -1.4859784156043498e-02
      -5.4825442752352162e-02 -2.5286417916502647e-02
      3.7097583313248438e-02 -1.0529667930950258e-01
      7.0059240501395170e-02 9.9027875935129325e-04
      7.2593582946030757e-02 -1.6052797606962387e-03
      6.2806280336091119e-02 -2.1519556761849860e-02
      -5.8545526194239625e-02 -7.5360736533755440e-02
      2.3723054126875004e-02 1.8905666398374689e-02
      3.5160782921810380e-02 -2.8399320613768288e-02
      7.7133357352747414e-02 5.6300721131947194e-02
      -4.4064219898687716e-02 8.5448551904798054e-02
      -5.8077229465574018e-02 -3.8214768090890285e-02
      5.0594477864325145e-02 4.2745840891440741e-02
      -4.8931495390277940e-02 3.7218663250459291e-04
      -9.4034475549066906e-03 6.8263378164176797e-02
      -6.6066126941390302e-02 -9.3639770178859695e-03
      1.5452506832135796e-02 1.6315881347750642e-02
      -9.0919326826027005e-02 -7.7364756159600798e-02
      8.2671148178572004e-02 -5.7952713773023502e-02
      -8.2108619667458332e-02 3.2535105589911809e-02
      -1.1537519283662406e-01 7.8039789681723284e-03
      5.9010040331268394e-02 -8.6303053254091142e-02
      -1.5654292093602938e-02 -7.0271013137224614e-02
      1.0088871530156134e-01 -4.6987102516228918e-03
      3.2929186211382945e-02 -3.4428846559088691e-02
      9.3727701094877366e-02 -7.3203546384333712e-02
      6.3540540427538719e-02 4.9456751787827297e-02
      8.8398151335536222e-03 -1.1631941486941926e-03
      1.6785244500458485e-02 4.9033020712745491e-02
      -1.2669387056701226e-02 -5.2476706266617379e-02
      1.0009788537312093e-02 -1.0287869420823965e-01
      -9.7979669702351099e-02 -9.9741913273846960e-02
      6.0460530992617265e-02 -4.0983700509736411e-02
      -2.3942977935219257e-02 9.6352984100028044e-02
      -9.7765352034792127e-02 -1.0526231943189587e-01
      -2.9171050212756038e-03 6.7305845082519800e-02
      3.5194928047775138e-02 1.7087932178461166e-02
      3.7816209805921833e-02 -6.9735445836627871e-02
      -1.3552143984048672e-02 2.4834293745277817e-03
      5.7990952910245168e-03 -6.4388259881031751e-02
      -4.7512842447524246e-02 -2.7661924067422072e-02
      3.8625613918184545e-02 -1.5456323517056352e-02
      6.0108992963405522e-02 8.2614883971557057e-02
      2.2201503058614080e-02 2.7061219784010937e-02
      -7.9662863706847550e-03 -7.9783738754596087e-02
      -4.4491490051542515e-02 8.6569610707452116e-02
      -4.0815497323759782e-02 3.6776778334886163e-02
      -6.4623047263690017e-02 -4.9295542741510087e-02
      6.5665806807686314e-02 -9.8621739969203773e-02
      5.9862644457602407e-02 -5.1380452376457365e-02
      -6.8097570129285856e-02 -8.3006567667236367e-02
      -2.5731344606859255e-03 7.2078916081004502e-02
      -4.2502361505309547e-02 -1.0141163251671021e-02
      -1.9874138530683306e-02 -5.1155003842087661e-02
      -4.3705724275211820e-02 -8.3906444722260231e-03
      -6.0494616942344266e-02 7.4239622109745815e-02
      -3.6156051087642263e-02 -5.9094186049262601e-02
      -4.3829776710560188e-02 3.0251846278225743e-02
      8.9074216015348678e-02 5.3097015683671429e-02
      6.8102886897469447e-02 -3.7209716151368137e-02
      1.7102119613443507e-02 8.5958099258209311e-02
      -5.7402318282676447e-03 8.8823386400486787e-02
      -4.9820240286429273e-03 -3.0886649053897191e-02
      9.3163558135893582e-02 -1.1905960130486374e-02
      7.7878181858158466e-02 -3.1651631097912192e-02
      1.5326635378050865e-02 -1.6232312028437196e-02
      4.1575540832544493e-02 -1.1813115344362244e-02
      -6.1045784474699064e-02 -6.2094032564661561e-02
      2.5506343237784623e-02 -2.1077642461553094e-04
      -1.0814308066068316e-01 -4.0150622859924885e-02
      -1.1576598174418451e-01 -3.3522609437935100e-02
      6.0677503750777274e-02 -3.1565254503146893e-02
      5.9531904446611467e-02 4.9503397021422098e-02
      5.9232586553322093e-04 8.2649811010773955e-02
      -1.2006864557969468e-02 -4.2217201673287318e-02
      -4.3740528779321095e-02 -9.5315023514606998e-03
      1.0399401874938799e-01 -1.0525033127705191e-01
      -2.5694176407507090e-02 -5.3974038317344902e-02
      -2.6630403799036504e-02 1.0529252153056529e-02
      -9.7264390260213569e-03 4.8254296513863808e-02
      1.7623137120621239e-02 -7.6009252916024922e-02
      -5.2869713783808090e-03 3.6361861050187183e-02
      5.2889494412753500e-02 -1.4653859824191302e-03
      5.7705376163697236e-03 -1.5626533895273496e-02
      8.9075597185120731e-02 -1.1571754880012453e-01
      -2.7558554310570084e-03 -2.0165971916154195e-02
      -5.0501692555181277e-02 -6.6799894848011991e-03
      3.1052415550023707e-02 2.2303759533638884e-03
      -9.3519379306334860e-02 2.6866592321303423e-02
      4.7422133288885247e-02 -4.2353848457455490e-02
      5.1201156031108669e-02 -7.4783557044294902e-02
      -1.1610962671827259e-02 2.2883921981618854e-02
      -4.0461749802361821e-02 -5.6819307100055998e-02
      4.1978604454368539e-02 9.6722500113188115e-02
      -6.2195397561717394e-03 -1.2542920416415035e-01
      -9.3977712338995156e-02 -7.9386338300485599e-03
      -5.8596443156440421e-02 2.8409499028078457e-02
      5.8133832345950029e-02 6.3519968387619918e-02
      2.3987876569851425e-02 -2.3096706377830609e-02
      4.1214408705205319e-02 1.1706044027266483e-02
      -6.0410133961996557e-02 -2.5536615785408390e-02
      -5.7769476142749139e-02 -2.6680161422829585e-02
      4.1416915054996707e-02 -1.0118178745843262e-01
      6.6067497551644053e-02 2.9707223274021812e-03
      6.9440467357715918e-02 -4.8144330515964154e-03
      6.6952586258072794e-02 -2.2120141059371837e-02
      -6.4379304794586104e-02 -7.8600750793122759e-02
      2.3346211731185281e-02 2.0851094515579777e-02
      3.6671782308972702e-02 -3.1601290945335002e-02
      7.9308237149762803e-02 5.8139622582172618e-02
      -4.3264206853278274e-02 8.7069308587542665e-02
      -4.8927689697877308e-02 -3.5820842451885992e-02
      5.2825548457721284e-02 4.4139014415665916e-02
      -5.1234215663032920e-02 -4.7510898744980807e-03
      -2.1211622433448353e-02 6.8300276226124182e-02
      -6.3175480537183193e-02 -1.0379329304568802e-02
      2.4314394736167224e-02 1.5798310497484928e-02
      -8.8339754349170185e-02 -7.3600065895433331e-02
      8.4518256913519885e-02 -5.4849908860066361e-02
      -7.5229278487037796e-02 3.2851379732243037e-02
      -1.0557865720587274e-01 1.2152081907134403e-02
      6.1383448425318676e-02 -8.1902419099501758e-02
      -2.4932877239823858e-02 -6.8280236167342051e-02
      9.7489659931983330e-02 -2.1454598698383031e-03
      3.4641095978366176e-02 -3.5388285525068008e-02
      9.5504088487865291e-02 -7.3226300727696661e-02
      6.3422246803531368e-02 5.4754331754630958e-02
      1.7345248884309277e-03 -3.7437953669314005e-03
      1.5209987111750969e-02 4.2773312737947183e-02
      -1.4640717761201147e-02 -4.8764740352415702e-02
      1.9507664789543064e-02 -1.0104203516960372e-01
      -9.4153234048753670e-02 -8.6558123855038471e-02
      5.3446198750471449e-02 -4.4503413714322287e-02
      -1.9878849083204385e-02 9.1879917345779202e-02
      -9.4444298870100654e-02 -1.0492997242000753e-01
      -8.0903383448499115e-03 6.3514625364724589e-02
      3.2224306999149258e-02 1.9693176204456448e-02
      4.2256956234193892e-02 -7.5625767785197237e-02
      -1.7780635682774895e-02 6.6730399776868034e-03
      -1.3780388226961973e-04 -6.4291839200481982e-02
      -4.8064583666641750e-02 -3.4341163164868460e-02
      4.0542302989439061e-02 -1.0820155906170324e-02
      5.3688003176504386e-02 7.6866791777351465e-02
      2.0338889212381098e-02 2.2312850126588905e-02
      -1.2846320152730930e-02 -7.2222866060592458e-02
      -3.9253741460486012e-02 8.5021458312633372e-02
      -3.9966116735414489e-02 3.9735021683867743e-02
      -6.6909327229204604e-02 -5.7480900296615532e-02
      5.6681931884020556e-02 -1.0092715009608895e-01
      5.9728700791223811e-02 -4.2372688819936923e-02
      -6.6315455809072138e-02 -8.4256563515439850e-02
      -1.8038826198807714e-03 6.9829065693020206e-02
      -3.9113211138276878e-02 -1.3640937888912096e-02
      -2.5067175583221739e-02 -5.1597212016358245e-02
      -4.0688717242668766e-02 -1.1217172389176499e-02
      -6.2452088181865741e-02 6.3245830970658543e-02
      -3.3734276737105551e-02 -6.4764574442444406e-02
      -4.4799807677056346e-02 3.4740702651122730e-02
      9.6661144279717170e-02 4.8638637612998310e-02
      6.3849439574847636e-02 -3.7858202232121857e-02
      1.8460030848749438e-02 7.9532590979199666e-02
      -1.4609031896281512e-02 9.0720183615903213e-02
      -1.1437805606504289e-03 -2.5417353789800312e-02
      8.9315565079254075e-02 -1.2129386927043526e-02
      6.3028579549071970e-02 -2.8712031604561761e-02
      1.2374334221136613e-02 -2.1272210706159988e-02
      4.2280003378638686e-02 -1.1989946446988253e-02
      -6.1764294027248243e-02 -5.5122076497937551e-02
      3.0114962731121016e-02 -3.0775614241520632e-03
      -1.0950776489435342e-01 -4.3836493501638360e-02
      -1.0170147064537122e-01 -4.1684346371108218e-02
      6.2701727691545361e-02 -3.5988699401115536e-02
      6.2963039267130108e-02 5.0882624656660123e-02
      6.2702646098058814e-03 8.3872749167305236e-02
      -1.4562430120965057e-02 -5.0142238892642930e-02
      -4.5676511757856024e-02 -9.3734295294184387e-03
      1.0288967289679164e-01 -9.8043135394220673e-02
      -1.8947873215752524e-02 -4.9930335914512125e-02
      -2.9528987300225479e-02 1.0756061118682178e-02
      -1.2135240346058720e-02 5.7470959945278163e-02
      2.4709969551065979e-02 -6.6375849424541278e-02
      -7.7895433880947572e-03 4.3036952885888345e-02
      5.3741539570030868e-02 2.0159529582504100e-04
      4.2219151017598563e-03 -1.6986667707540853e-02
      8.9946581097147427e-02 -1.0693007752814190e-01
      -5.2996038083296861e-03 -1.1342572938162676e-02
      -5.4171331054890609e-02 -9.2862797940331792e-03
      3.5890119806682039e-02 -9.3730945849151114e-03
      -9.3898831641620994e-02 1.9874605382955723e-02
      4.4513210902957234e-02 -4.6357197743898848e-02
      4.8653291368144377e-02 -7.6413831308886029e-02
      -1.6621278887357125e-02 2.5325398755265894e-02
      -4.7015621089827479e-02 -6.0385469751823156e-02
      4.2311501892350521e-02 1.0327009114717169e-01
      -1.2740546517538757e-02 -1.3309114430231886e-01
      -8.6387109909871598e-02 -8.4354490233128597e-03
      -6.1095702132435717e-02 2.9340887301402985e-02
      5.7931590377068076e-02 5.9575961678561072e-02
      3.1388304445696243e-02 -2.7652739810506932e-02
      4.0199574301518937e-02 1.4637449586000922e-02
      -6.5154374162266257e-02 -2.3241157619370588e-02
      -5.7689616465524091e-02 -2.1546704726268649e-02
      4.4365132343100175e-02 -1.0707922160351838e-01
      6.4842109066444581e-02 5.2199840717483672e-03
      6.6407515352115698e-02 -6.0097088662772755e-03
      7.0821901367611434e-02 -2.0899888907497603e-02
      -6.6574795011049570e-02 -8.3638855931206971e-02
      2.3144933243641443e-02 1.9267497004910455e-02
      3.9703810477056033e-02 -3.1990194000987293e-02
      8.2022520946173974e-02 6.2579689489021512e-02
      -4.6801041183164485e-02 8.8766236848964244e-02
      -4.3863806296493058e-02 -2.8410451148141790e-02
      5.5165771898130461e-02 3.2287759156661149e-02
      -5.3981652710081401e-02 5.0126890657536749e-03
      -2.8706896311961137e-02 6.4290165946722030e-02
      -6.3020865459704090e-02 -1.1049439046836550e-02
      2.3557695335970460e-02 1.7956165671442655e-02
      -8.4550320399211704e-02 -8.1528356698686369e-02
      7.9772871278954632e-02 -5.9422892621055587e-02
      -6.1286378046061206e-02 4.0665196165124817e-02
      -1.0182972557546813e-01 1.5530214041156998e-02
      6.5894265935026203e-02 -8.6005046741877103e-02
      -1.4112519730487515e-02 -6.2794407948483469e-02
      9.8204861986666642e-02 -4.4207963288468285e-03
      3.3290333661616114e-02 -2.9437717829114474e-02
      9.9860383089497490e-02 -8.2608025373073726e-02
      5.9907192793053489e-02 6.1214521839460773e-02
      4.1611802769311538e-03 -7.7304427277518437e-03
      9.9098642864992089e-03 3.8748219945941513e-02
      -2.2788231204085591e-02 -5.1310579129542837e-02
      1.4807766338620212e-02 -1.0437010946179577e-01
      -9.6089039659421088e-02 -8.3614295396841343e-02
      5.6789971428896351e-02 -4.7450504397263886e-02
      -2.4437063062833414e-02 9.9191689882093939e-02
      -9.9910411734868004e-02 -1.0569636753967215e-01
      3.4038371483686942e-04 6.0952959156343391e-02
      3.7665719472794949e-02 2.2803781535914860e-02
      4.1753518129037714e-02 -7.4021531179128394e-02
      -2.3102822865832404e-02 4.9658711317446431e-03
      -8.4397361214183216e-04 -6.0140694046876789e-02
      -4.8066981221088170e-02 -3.5285664707474351e-02
      4.3431672136507567e-02 -1.3771113728388044e-02
      5.6596149311293031e-02 8.4942271737742936e-02
      2.5229014128882801e-02 3.2491433747109166e-02
      -5.7066923441018418e-03 -6.7813137416929431e-02
      -3.6809052384243687e-02 9.5202371153980905e-02
      -4.7701657068126901e-02 4.3583978213926768e-02
      -6.1953584968474890e-02 -5.7413273161596591e-02
      5.8225802168818362e-02 -1.1077026371674735e-01
      5.2516976330856890e-02 -4.5662695828389326e-02
      -6.3626358391329588e-02 -7.9346566886153769e-02
      -1.5981506974783544e-04 6.7400436522616208e-02
      -4.2945102153766464e-02 -1.1548057167135431e-02
      -2.9388557585301841e-02 -4.9397888609209920e-02
      -4.9660065519784934e-02 -1.6861193698749066e-02
      -5.4570209565341074e-02 6.8241059387094335e-02
      -3.6698318339732999e-02 -7.1147780229018950e-02
      -4.1559714646794907e-02 4.0703885800129527e-02
      9.8187148857187240e-02 5.6422839252901716e-02
      6.8261405421508811e-02 -4.8117755558915204e-02
      4.6230953987112721e-03 8.2105881547773304e-02
      -1.3148611806656685e-02 8.6767724525674467e-02
      -1.4495936623869591e-02 -2.8606834551917225e-02
      9.7467609080199150e-02 -8.5038895994565752e-03
      7.1109047660665822e-02 -3.6349007951197457e-02
      1.4044367538037445e-02 -2.0497217932509554e-02
      4.0101078728214910e-02 -1.3838037430127294e-02
      -5.9891157844355357e-02 -5.7822868588679688e-02
      2.7808530770643287e-02 -8.9864468930486968e-04
      -1.1466625996266436e-01 -4.0839106047096625e-02
      -9.8019879717104685e-02 -4.2573606607217387e-02
      6.5650602688153703e-02 -3.9208437163865857e-02
      6.5257591406286050e-02 5.7831842744009841e-02
      6.6319526843216451e-04 8.4006180562605892e-02
      -2.8307948718221704e-02 -5.4673213166284353e-02
      -4.9738431174236271e-02 -6.4725314176366355e-03
      9.7163516148137730e-02 -9.1098959709661115e-02
      -2.1890998808320874e-02 -5.8711392969480108e-02
      -3.4669286864504004e-02 4.6147828065203197e-03
      -1.7903521203944693e-02 4.9924220394038911e-02
      2.7457052711303515e-02 -8.1684239042345813e-02
      -7.2720562730279889e-03 4.2776871529641942e-02
      5.5591680743640647e-02 2.2032101306714239e-03
      9.6563234700714432e-03 -1.6340178562362587e-02
      9.3713685267999294e-02 -1.0608882289624427e-01
      -3.1596211540385016e-03 -1.2930898856439050e-02
      -4.7879027663779480e-02 -7.1023366063189220e-03
      3.1237941959158293e-02 3.4754244460314821e-03
      -8.3001829763259150e-02 3.6360850205879175e-02
      4.1981699897083176e-02 -3.6247153887266244e-02
      5.1720927075602906e-02 -6.8171008296065594e-02
      -1.7835402301834113e-02 2.3514968350303467e-02
      -4.5352509401143597e-02 -5.9998691784369680e-02
      4.3782232808166489e-02 9.7344037211572906e-02
      -1.1853196904911033e-02 -1.2484625319726675e-01
      -8.3414921397017200e-02 -4.1190816815384985e-03
      -4.9867465392452980e-02 3.2631980763764695e-02
      4.6458932040644614e-02 5.1104241411220351e-02
      2.3649853579946603e-02 -2.6496889769669203e-02
      4.3149927770772721e-02 1.4162107513927045e-02
      -5.6226325747334549e-02 -3.1096004349231179e-02
      -5.1572502349758673e-02 -2.1890795321216797e-02
      4.3415260880070083e-02 -9.8115790575886652e-02
      5.3614807535900401e-02 8.3430580023961566e-03
      6.1035753963791343e-02 7.8222402107740023e-04
      6.8301777062859934e-02 -2.6825409717356426e-02
      -5.7547836065466734e-02 -6.6132166147865185e-02
      1.8180155315882761e-02 1.7010920624252759e-02
      3.1629285472686682e-02 -3.7204099965083379e-02
      7.5832364680835998e-02 5.2256018940029764e-02
      -4.4463059081514190e-02 7.1163556117443391e-02
      -4.9433671528967826e-02 -2.8921307410627664e-02
      6.0372288136961848e-02 3.4970739862294292e-02
      -5.5426998775232938e-02 -5.0801347151291148e-03
      -2.8040882586108613e-02 5.8981578776440981e-02
      -6.2718464690219494e-02 -1.7012513151820167e-02
      1.5175951431316368e-02 1.9781105658279070e-02
      -7.6614818453632050e-02 -6.6424169522145748e-02
      6.7397639531580886e-02 -5.0998694970446200e-02
      -7.3759026367191061e-02 4.0566808300091753e-02
      -9.2746982534352387e-02 2.1862983009477678e-02
      5.3174885680052499e-02 -7.2671351402478365e-02
      -3.5300007652112032e-02 -7.1689639431769481e-02
      8.0985525490763086e-02 -3.9979110986941933e-03
      3.2123984845908886e-02 -4.9362449838982782e-02
      9.1144633757264171e-02 -6.5349375327326611e-02
      5.7005469858526045e-02 5.8541144217698141e-02
      1.2517056941982766e-02 -9.8252098014929880e-03
      9.5544313958102617e-03 3.8605514115769908e-02
      -2.0669049713644305e-02 -5.9266239258595796e-02
      1.7440578064253445e-02 -8.8343286728571183e-02
      -8.7480764735820518e-02 -7.3922225907428682e-02
      5.4501101641648099e-02 -4.3194115856369349e-02
      -1.6005873319429618e-02 9.3035201460153677e-02
      -7.7029503227713611e-02 -1.0002879882303804e-01
      -5.9314201809574554e-03 6.5590186666279887e-02
      3.7634984342974687e-02 2.9784578727488503e-02
      4.0907266165820480e-02 -7.3669525219532461e-02
      -1.8819556225500238e-02 7.2336711087052728e-03
      4.6827247708391306e-04 -4.8559021458235131e-02
      -5.3406349765830460e-02 -3.8971195268788901e-02
      3.9448122992703560e-02 -1.2383574872853511e-02
      5.0362777032503817e-02 7.6132310366512440e-02
      3.0443920550461061e-02 3.0630751578230538e-02
      -7.2523570775989777e-03 -6.8203544134460101e-02
      -3.5603050443644979e-02 8.7622586667113853e-02
      -4.6947508267205236e-02 4.4966561215663454e-02
      -6.1889781002759589e-02 -5.5629549544916418e-02
      5.2549683613593003e-02 -1.0535613766952341e-01
      5.1386835811751602e-02 -4.4447729457870663e-02
      -5.3198178539003195e-02 -6.8598960884890203e-02
      -7.5504171106209423e-03 6.0175339965638182e-02
      -3.7475386397651772e-02 -1.1686517906839335e-02
      -2.0509507646387728e-02 -4.7215220025666485e-02
      -4.6348347436038807e-02 -2.2508443870455443e-02
      -5.6083961820046761e-02 6.3446182100329956e-02
      -2.3734383444713784e-02 -5.3000791279778900e-02
      -3.9870244115163711e-02 4.3878084331721273e-02
      9.3383691340467548e-02 5.3178263140827818e-02
      6.7854357320634079e-02 -4.5797827191312618e-02
      2.3327637066563239e-02 7.5880617220223101e-02
      -2.2686114909908933e-02 7.1171359351028002e-02
      -1.0561900411950825e-02 -2.9003011378537651e-02
      7.6738495589432534e-02 -1.4943056975617921e-02
      5.1010007275798123e-02 -2.8453842450142128e-02
      1.1225382688435767e-02 -1.7226070029559355e-02
      4.0304967491031782e-02 -1.4256633994013035e-02
      -4.9059452900094593e-02 -5.6364071522858120e-02
      2.7739373327090016e-02 5.8302982934135359e-03
      -1.1673507039473188e-01 -4.8016357062218781e-02
      -8.4617366970557148e-02 -3.9386897472808657e-02
      5.7082985996172037e-02 -4.0960612128518280e-02
      5.9990843103500023e-02 4.6409842144568669e-02
      4.3002668473843420e-03 7.4926617085439323e-02
      -2.8376316574443589e-02 -5.3209467065310663e-02
      -4.9241608537093993e-02 -1.1915034224179532e-02
      9.3670284492699818e-02 -8.5842289426308269e-02
      -1.8829927905875069e-02 -5.2527438885486548e-02
      -3.6377182536628735e-02 2.0510851628210012e-02
      -1.9193962553105258e-02 6.2513188462971325e-02
      3.0514605374097323e-02 -6.3692178186874060e-02
      -6.5133711933741730e-03 4.5131463909430368e-02
      4.9358533122308354e-02 -4.4649058293943283e-03
      1.1784332983241840e-02 -1.5182535171527355e-02
      8.3647287253716077e-02 -8.3780846820920435e-02
      6.3553219151473318e-03 -1.3817185224666895e-02
      -3.6362370147142567e-02 -4.8596308997490125e-03
      2.4966849232058590e-02 5.3427000021625190e-03
      -4.0733340049952008e-02 4.2628666939416221e-02
      2.9792909608873659e-02 -2.6589354814566844e-02
      2.9586578317796146e-02 -3.9086437349537255e-02
      -9.9755788397953571e-03 2.3267944620479774e-02
      -3.5538840545911665e-02 -4.2815698228049211e-02
      4.5998462526335750e-02 6.8084233320706899e-02
      -1.5365774662188428e-02 -9.7425163259224068e-02
      -7.7463135382008011e-02 -7.7794110672034658e-03
      -3.4109914741536677e-02 2.8546741694370371e-02
      2.3968807772161614e-02 2.2868753967231627e-02
      1.3236148767359873e-02 -2.7374176411752122e-02
      3.4029646669576169e-02 1.3083520791980673e-02
      -2.8741581922364812e-02 -2.2762325311832789e-02
      -2.9065795100558990e-02 -3.1410077319686591e-02
      3.7166863392026864e-02 -5.4368276668960137e-02
      3.2834319789916633e-02 -5.8803492768297839e-03
      4.5369007276786430e-02 -2.7937105092114057e-03
      4.9109254859024225e-02 -2.7981097235520478e-02
      -3.6038638255096594e-02 -2.9436673946701238e-02
      2.1651187354045687e-02 1.7815964034473490e-02
      2.7162654005031206e-02 -3.1967548481076712e-02
      4.9109912040618882e-02 3.8332833421267552e-02
      -4.2474160896287638e-02 3.5475607188614131e-02
      -5.7527558242569679e-02 -1.5556676658803474e-02
      4.8603501444716354e-02 4.0713959729331201e-02
      -4.4966016148213633e-02 4.0223195430889765e-03
      -1.6110824592355743e-03 2.7921011297642524e-02
      -3.9417972623293461e-02 -1.7683215365102874e-03
      1.9653621734880659e-02 1.2635202073457566e-02
      -3.3426893006666646e-02 -2.2043065183624463e-02
      3.4765402423801543e-02 -3.9598186798712208e-02
      -7.1323840839206135e-02 1.6928820545422298e-02
      -5.8413746161366721e-02 -1.4287140070358331e-03
      2.4575896208250750e-02 -3.5833043673458784e-02
      -3.7587044251996028e-02 -4.9521372855007156e-02
      3.1614776837632488e-02 -7.5938378984109446e-03
      2.9943822601380194e-02 -4.6308279641148378e-02
      5.1903061474537146e-02 -3.4672010545154980e-02
      3.1821010572882516e-02 4.4068429231818751e-02
      1.2883046883403259e-02 4.4018514068358107e-03
      9.9845685099909497e-04 2.5628701723112369e-02
      -1.3016356917505498e-02 -5.4488795053747215e-02
      1.7395817866331664e-02 -4.2469082606848715e-02
      -4.8605686485545314e-02 -5.0053152193380274e-02
      3.2795989796247524e-02 -2.3783203538880866e-02
      -1.9724267212331573e-02 7.2578285875104315e-02
      -4.0300173665929855e-02 -6.6040311033499610e-02
      -1.3631372715730070e-02 4.9299215463049405e-02
      3.4254596343254416e-02 3.4489686667454528e-02
      3.6702996083247279e-02 -4.7438654444845109e-02
      -1.9863127781470206e-02 2.7548276647494673e-03
      8.1303193913387500e-03 -2.4012968157059632e-02
      -3.8288197535123372e-02 -2.5528424909101823e-02
      3.3796145715914383e-02 -7.2685062785585617e-03
      4.0293996084939124e-02 5.2820162972037774e-02
      7.5969947169019295e-03 1.6346816892838276e-02
      -1.2287896565854446e-02 -5.7510672347712996e-02
      -1.3554959540950618e-02 6.4853784568790970e-02
      -4.5006443766384678e-02 2.9405190965606998e-02
      -5.1194618545775429e-02 -4.0629072609175795e-02
      3.8539629671466645e-02 -7.3495370835020668e-02
      3.5046325300921048e-02 -2.6401268397709465e-02
      -2.9439864338756790e-02 -3.7893645808865103e-02
      -4.8185347883410038e-03 1.9296320603942506e-02
      -1.9110860844288244e-02 -8.9654425294311826e-04
      -1.8889580585309023e-02 -3.7983835747938580e-02
      -3.9343408939574526e-02 -1.0944991288164986e-02
      -4.6339273013706925e-02 2.6408983141353148e-02
      -1.8298819390381589e-02 -2.7382727781261062e-02
      -3.6799709559492515e-02 3.0464524165674831e-02
      6.4225358266656998e-02 3.2145925610512237e-02
      4.9571389601228984e-02 -3.2401770929915835e-02
      3.3058498822833973e-02 4.0569281279470702e-02
      -1.0151982982633765e-02 3.2087421563336389e-02
      1.0042790549479895e-02 -1.9763907187021094e-02
      1.8924022599382990e-02 -1.5648235803621173e-02
      2.1942151405852043e-02 -2.2238183426970426e-02
      3.9076146587322122e-03 -1.3402874285506731e-02
      3.0461921724951518e-02 4.2433513495379500e-03
      -2.2485987903306897e-02 -2.8544292378034745e-02
      2.7565500349590714e-02 3.9698437429547644e-03
      -9.4411618500549618e-02 -4.1084414174311294e-02
      -6.6968564084121093e-02 -3.2163087492854202e-02
      4.0161941824468403e-02 -2.5175851702178988e-02
      5.0714521411438264e-02 2.6185100340075158e-02
      5.7106472046952869e-03 4.0982936810767652e-02
      -7.8373984981123697e-03 -4.0121292836978781e-02
      -3.7997895385181925e-02 -1.0519965274157736e-02
      6.7169019377003814e-02 -7.1589215785288512e-02
      -1.4664918472180984e-02 -4.3054657529284196e-02
      -2.1688018523088253e-02 2.2073929316857650e-02
      -2.1081205791087913e-02 5.7163149172533692e-02
      1.6000546139132630e-02 -2.0892356782854647e-02
      -1.1234754571894804e-02 3.1819301769636786e-02
      3.0011566279606012e-02 7.0791745822229076e-03
      3.1109897341467774e-03 -2.1387075178799304e-02
      5.2160768085536033e-02 -4.8607595881741281e-02
      3.3603543557097003e-03 -1.2703190697256898e-02
      -7.8203733798372244e-03 1.2939567040467718e-02
      2.4111587371456324e-02 -1.6881249016513302e-02
      -2.5000456805820609e-02 1.6430081957897347e-02
      1.0972421017735753e-02 -2.4621331950048828e-02
      1.8219509465636705e-02 -2.0554338730729350e-02
      -3.3754222119623100e-03 -4.3409533521508118e-04
      -9.0127845304386438e-03 -1.7780075746599962e-02
      3.5974985865048457e-02 4.3113988873657624e-02
      -1.9363907066808711e-02 -4.8918069888806454e-02
      -5.1807178864786176e-02 -8.9615293485391795e-03
      -1.9684852151492543e-02 1.3594439825769831e-02
      1.1130371801903984e-02 1.1502425758766286e-02
      -7.2412127479128856e-03 -2.1893714439327219e-02
      5.4080224664474217e-03 1.3857998580017841e-02
      -2.6559353824519429e-02 1.8285914720980586e-03
      -1.3660106379262215e-02 -2.0640129429725252e-02
      3.0667431216378389e-02 -3.1494986734957146e-02
      1.0839928641016112e-02 -2.8640977382211184e-02
      2.7201026647786942e-02 -2.9553661852521895e-02
      2.1208007904083816e-02 -2.9699570073875484e-02
      -5.9206182046592322e-03 -1.2543778349382471e-02
      2.2590543998454175e-02 3.2576622199004313e-02
      1.2484524076035359e-02 -3.0259358767031959e-02
      1.4810948643722118e-02 2.1465936934246945e-02
      -8.7534517105711043e-03 3.2816104653343080e-02
      -2.5510220192303073e-02 -1.3861825808471279e-02
      1.4108893772734690e-02 2.9762694169324231e-02
      -1.3666884460505698e-03 1.8797979846013980e-02
      3.1859215075520135e-02 2.0558581700402669e-02
      -9.2506151389488631e-03 1.5033423574399405e-02
      3.7170896920326442e-02 -1.3186174429231380e-02
      -2.7901377937219248e-02 -2.4216134887463277e-02
      2.4682504753234771e-02 -9.5857603306961792e-03
      -4.9975804194762552e-02 -1.1227432816930154e-02
      -4.7800481541455199e-02 -3.2192170964840568e-02
      1.2734355725329435e-02 -1.2969222168518759e-02
      -8.3560821110439118e-04 -2.0786973596330739e-02
      1.9117623770773268e-02 -2.2014285735899503e-02
      1.5883349612292430e-02 -1.0536513281219703e-02
      2.3975766420766566e-02 -1.2507830326242541e-02
      2.2901895372791480e-02 3.8238203522983329e-02
      -3.2053717179500642e-03 2.9718216030200292e-02
      1.2785858367384396e-02 1.6407974859793513e-02
      4.9052308458979836e-03 -1.9332826593084645e-02
      -2.8931828791929760e-03 -2.4004525703374229e-02
      -3.0099705810610510e-02 -4.1751571414719926e-02
      3.8725747221107248e-02 -2.4525679169051179e-03
      -1.7207835557476008e-02 4.4821198039957613e-02
      -3.2794869391691669e-02 -2.3516674313518802e-02
      -3.2246456715022624e-02 1.7648636694633343e-02
      1.4813586353941149e-02 -7.9301206716766016e-04
      1.4226327147592869e-02 -3.1426575560862015e-02
      -1.0510557356461015e-03 5.4065001162912308e-03
      2.9987793213236594e-02 -1.6526481438909935e-02
      -4.8532885802698815e-03 -3.4921970694844102e-03
      7.1579422720938930e-03 4.6870800372497837e-03
      1.1438504507044601e-02 1.6860362070126745e-02
      -1.6938353077196461e-02 -9.0261756233514998e-03
      -1.7611325286881949e-02 -3.2452046097000885e-02
      -1.9537422803417848e-02 2.8930811159813229e-02
      -3.8276422077203935e-02 2.4957422066911941e-02
      -1.2845417883538199e-02 -1.1776987654850055e-02
      1.4332899525427682e-02 -4.3028349970587514e-02
      2.3131449760328774e-02 -1.7345868289744028e-02
      -2.2354900221477517e-02 -4.2696382575877136e-02
      -1.8833561906422422e-02 5.8212168856118770e-03
      -1.0424877912200384e-02 -1.0532213256778611e-02
      -2.1625852513895056e-02 -2.0593738365187141e-02
      -8.9825112464897820e-03 5.8203299257992757e-03
      -3.1483913938235943e-02 2.5141657119913754e-02
      -2.1524733159472152e-02 -2.6956383967968790e-03
      -4.8537308960668379e-02 -9.7079966086445757e-03
      3.6976970956458827e-02 1.3424722798282746e-02
      1.7855454496313334e-02 -4.5692835466546629e-03
      -1.0260377936327002e-03 3.3437859354281473e-02
      1.2528118486582552e-02 1.0491993390689987e-02
      3.3104198305036629e-02 7.1986999076560391e-03
      1.5842156547733882e-02 -1.4420508115973545e-02
      3.0443816011775777e-02 3.9415877659095475e-03
      3.3213698808935354e-03 -1.4583208871288211e-03
      1.5391251368382828e-02 1.6390430359814034e-02
      -2.4170397253110053e-02 -6.3326669832652043e-03
      2.7563817282755143e-02 -9.3873160048050571e-03
      -4.9298668161828742e-02 -5.9393718852064374e-03
      -4.1368422133439407e-02 -2.1903994250889510e-02
      9.3649888826908018e-03 1.1356773424262511e-02
      2.6153877450169543e-02 2.2243293758384873e-02
      2.0816612058738308e-02 1.4618136579935903e-02
      2.8264173271772990e-02 -2.8658402860085017e-03
      -2.3292873732732540e-02 -1.9915443484161011e-02
      3.7607869196358917e-02 -5.3445745210597265e-02
      -3.4362843988314101e-02 -1.2386651860452883e-02
      7.3216660201705789e-03 -6.8041373688343737e-03
      2.5137170544453054e-03 1.9512590865282779e-02
      -1.2784616608642890e-02 -2.1528371117402081e-03
      -2.4747050146837209e-02 3.7669089144097443e-03
      2.4105372909244607e-02 3.2910857912536333e-02
      -2.0101363624120950e-02 -6.3623096548276834e-03
      4.6451241479714918e-02 -4.2024462456592311e-02
      -2.5736643762396384e-04 -2.7088615247281525e-02
      2.7520527857660460e-03 1.1745535389411784e-02
      1.3255422074004437e-02 -2.8182589195718553e-02
      -1.1197378350448957e-02 -9.8400572354865566e-03
      5.8695424260027055e-03 -1.2517446853708368e-02
      -6.3813308635886608e-03 7.9668382801076723e-05
      2.0483727295229604e-03 -4.8709073196441912e-03
      4.9926371317993495e-03 2.6805222391441887e-03
      1.6862370098834491e-02 1.7417838770912804e-02
      -2.3384426450538596e-02 -7.2460452920420125e-03
      -1.8663988381160825e-02 -1.2187261855109171e-02
      -5.0330568455328357e-03 -3.0834729203986673e-03
      6.8249288028048010e-03 4.4963822985216343e-04
      -9.5187932509213299e-03 -9.6302196747682454e-03
      -5.5139285618445565e-03 6.7389101005618218e-03
      -2.0511893305681358e-02 1.3237906601161481e-02
      2.4210719925188990e-03 -9.6199628720184810e-03
      1.4661111457020537e-02 -6.5264255947660478e-03
      3.1329540023669017e-03 -2.8355034560939664e-02
      3.1402184231191159e-03 -3.2959185705044247e-02
      -1.3014204704961197e-03 -1.2921797673743726e-02
      2.9948134718263963e-03 -8.5831781924776539e-03
      1.3072800027476445e-02 2.7422383508885994e-02
      9.9005322214890043e-03 -1.7358934880521378e-02
      -3.7196291025031513e-03 4.8222208722379046e-03
      1.4905624615921051e-02 2.5674920929270095e-02
      -9.3615712281891537e-04 -4.3988703571794293e-03
      2.8914564451038740e-03 -9.6316125399821644e-03
      1.5348740192916075e-02 2.5286636303950390e-02
      3.5940592775740396e-02 8.6174517968947047e-03
      4.8733272167830769e-03 2.8780059790859770e-02
      2.7172289351136216e-02 -1.9574123550728090e-02
      -1.8654375279956038e-02 -1.3522819837201733e-02
      2.1454782014889325e-02 -2.8074531652890903e-03
      -1.4804273519551428e-02 -2.9096986960274483e-02
      -1.6673113624735905e-02 -3.3174548923690005e-02
      1.0393056302673107e-03 -6.2350590327583796e-03
      3.4070265234277190e-02 4.4983932908056173e-03
      5.5761395127419582e-03 -1.4989819213413792e-02
      3.2581213947904369e-04 2.3897883292582762e-02
      -2.4049905613586727e-03 4.3736985226868934e-03
      8.9561432484378603e-03 1.7091235853411567e-02
      -6.6668890593814516e-03 2.5924819359826736e-02
      5.8204995126501704e-03 -1.2661840603318125e-03
      1.5264464534404188e-02 1.0767789323067494e-02
      -6.5099608488058550e-03 -4.2557107813281387e-03
      -1.5884376176115857e-02 -1.7060546235476867e-02
      2.4025796043663762e-02 8.9537113635061606e-03
      -3.0807316819972991e-03 1.6662843291790169e-02
      -1.2840014207318300e-02 4.6437781982145094e-03
      -3.4093762412095052e-02 -6.2702499497388920e-03
      5.5778319434839118e-03 -3.5066774193324837e-02
      -7.4624205555967439e-05 -1.3241671903420380e-02
      4.8455489548854553e-03 3.4766416756898976e-03
      2.9964563383423019e-02 -7.1977009074278260e-03
      2.0481116904469197e-03 9.3194245869968190e-03
      4.6172738812461263e-03 6.3516344800204315e-03
      -2.0629302401629990e-03 7.3795174910076843e-04
      -2.3489173357845158e-02 -2.1368685748922395e-02
      -1.2471329914726421e-02 -6.7556619073962814e-04
      -1.1201855257118960e-02 2.7195032047595629e-03
      -1.9359642669782219e-02 1.1062541359866677e-02
      8.5056907666795087e-04 1.3395343738496848e-03
      3.2885963674925038e-03 -1.6370039174148181e-02
      6.7794615765826858e-03 2.5363173929182927e-03
      -1.3915454141062817e-02 -1.9794818252125188e-02
      -1.5934348761140315e-02 -1.7769642857540153e-03
      1.1644024657601741e-03 -1.3609499841291646e-02
      -1.1410073579466126e-02 -6.7430156711924295e-03
      4.5336798233649809e-03 1.1380625083704795e-02
      -3.2201114749905277e-03 1.9520215160033653e-02
      -1.7254140281735702e-02 1.1843448965747367e-02
      -2.5889640784413113e-02 -2.4052338241513611e-02
      1.8088949601860058e-02 5.6803468148943007e-03
      6.1574482965262253e-04 5.8134828938021963e-03
      -3.3177918671549948e-02 1.1196503465723684e-02
      2.3735431273977772e-02 3.5623496220234920e-03
      3.2642710272444024e-02 1.0199362127339877e-02
      1.2884657319631130e-02 -7.4564308694332329e-03
      1.6609195420244086e-02 1.4218500245598823e-02
      -1.2485733490103911e-04 1.0128286104436878e-02
      3.7756479527111691e-04 1.5319598162962703e-02
      -2.5860188255600641e-02 1.0549626319687493e-02
      4.5981715415238872e-03 -1.4925302079913293e-02
      -1.6970883992584319e-02 1.2646140774855938e-02
      -1.8257422455112835e-02 -9.0299624563307413e-03
      1.6753559372663050e-03 1.8982872646126182e-02
      1.3387535936738222e-02 1.2484862786592667e-02
      1.1985186518675467e-02 3.6436181234119785e-03
      4.0288760159587302e-02 1.7426983151314648e-02
      -1.2531126147948456e-02 -1.6912030779076929e-02
      1.1853735375344950e-02 -2.6359515137655148e-02
      -3.0595868924497008e-02 2.5357619620338524e-03
      1.5983012112388197e-02 -2.9983154075292263e-02
      1.5817452879909398e-02 -8.5615948601743784e-03
      -2.5699398135709317e-02 -9.0961459941087195e-04
      -2.1340445072753459e-02 -4.1261472509002053e-03
      1.1835295000583704e-02 2.7716670419194060e-02
      -2.3061329533697581e-02 -1.6641211172303502e-04
      2.5148669217289966e-02 -2.0219994040805607e-02
      -3.4653536253899619e-04 -2.2025820124460735e-02
      2.1765665097747216e-03 6.2183506747380884e-03
      4.9949772720648267e-03 -2.5722230831785549e-02
      -2.8321954465825579e-03 -1.6421896050854937e-02
      -5.0341777693245111e-03 5.8700583702955421e-04
      -3.7571759326859264e-04 7.3395086718461020e-03
      5.3052168909318628e-03 -6.6887387223480629e-03
      3.1309911972961270e-03 5.1165246524634245e-04
      4.1432759760854096e-03 6.4354207853878640e-03
      -1.3318362788963808e-02 6.6648157481046123e-03
      -8.3091526536688623e-03 -9.0374241178639066e-03
      -1.1098009620677880e-02 4.9162344837733044e-04
      -1.0794112177165899e-03 -5.8980912191359484e-04
      -1.2782804013534148e-02 -4.5043789636880762e-03
      -9.1348587158093346e-03 8.4745964694408361e-03
      -7.6520877354382261e-03 9.2643626600791354e-03
      -9.8968122858402049e-04 -5.5090665253802584e-03
      5.7441672612847617e-03 6.9712548246485566e-04
      -1.8137968527372796e-03 -2.8111124663042136e-02
      1.6052730907284243e-03 -3.4351844972675481e-02
      -8.4489323030769170e-03 -6.3753684779786438e-03
      1.3135980707192805e-02 -2.7503301280820368e-03
      8.5608890274923629e-03 2.1607980743652219e-02
      3.1734921595096623e-04 -9.0227224924870272e-03
      -7.6442647645135588e-03 5.1364604719693003e-03
      1.0627152330343356e-02 1.2873442524305325e-02
      6.5175105658542513e-03 -7.8525198494841693e-03
      2.7948559826094984e-04 -6.7703566183753413e-03
      7.0109015111865175e-03 1.9977682065776829e-02
      3.1773602034403318e-02 -1.6558382147112711e-04
      -1.0137312261233704e-03 2.9081166670954815e-02
      2.5287283853933435e-02 -1.9048023539084958e-02
      -1.3279315523156384e-02 -2.0233940125799570e-03
      1.3152260189482456e-02 -3.6590517621558458e-03
      -1.5867066854231615e-02 -2.6562504127166361e-02
      -1.2808154920357783e-02 -3.7247596538865037e-02
      -7.7441395718365647e-05 -2.7850627847155838e-03
      3.2866849120271401e-02 3.8509330944271896e-03
      -1.8916400105541860e-03 -5.8958593232074207e-03
      3.3445091141272513e-03 2.7430925325128794e-02
      -8.1837411117327025e-03 8.4154770217487688e-03
      6.1631034719010032e-03 7.0630734981186891e-03
      -6.4469128150708476e-03 2.2940757381817670e-02
      5.0774261231753409e-03 -5.2259666706085410e-04
      1.3283057377457219e-02 1.0783504133393270e-02
      -1.4541962563528392e-03 -3.3562501910426963e-03
      -6.0245426716745726e-03 -1.2255005629359127e-02
      1.6538342697538146e-02 5.6725459967442516e-03
      -1.2314775140917988e-03 8.8759961681324634e-03
      -4.9907504955877986e-03 1.6428864947177892e-03
      -2.6615834773234245e-02 -4.2001883289605078e-03
      1.1784473971686447e-02 -3.4707642727530096e-02
      -2.3186435861381098e-03 -6.0616426866898594e-03
      8.9101153295876884e-03 9.4714501148298463e-03
      2.0895144056471499e-02 -1.8778023449329709e-03
      -6.6601173413131823e-04 8.2998320206401129e-03
      5.4891095616556949e-03 5.1599246089643188e-03
      2.3732838789946443e-03 -4.3198269031629400e-03
      -3.2853880447036153e-02 -2.0209856921292076e-02
      -1.3046985961683289e-02 -8.7867918030880884e-04
      -3.9696009864253531e-03 -1.0723225884371445e-02
      -1.3831971561174378e-02 4.5763716638552981e-03
      2.6883756168365604e-03 -4.7286142200173562e-04
      -2.6964938615342124e-03 -2.5089785587572777e-03
      -3.1332658766355429e-03 9.5031657849435867e-03
      -1.3944028788830149e-03 -1.9532559472000912e-02
      -1.5495076423419690e-02 -4.4236680445921698e-03
      -3.0152057502840167e-03 -7.1811845839483933e-03
      -4.9422322065103630e-03 6.6453760749810593e-03
      -3.8415218742980121e-03 3.9882040132580383e-03
      -2.1446772705269461e-03 1.2007558215794011e-02
      -5.8019028911396268e-03 1.1203352736486948e-02
      -1.6513680145634983e-02 -2.2367093937475421e-02
      1.2036885153125529e-02 1.4284436812154061e-03
      -8.3048790202071981e-03 1.0485277217751544e-02
      -2.8090918989779015e-02 2.4385648918338254e-03
      1.6321271252871566e-02 4.2274658304079817e-03
      2.7451868093768348e-02 9.3875073358019052e-03
      3.0948979266637237e-03 -4.5408328049465806e-03
      1.1538681678118466e-02 1.2263999567599271e-02
      -5.0554614467055127e-03 1.0932940036456484e-02
      -8.3508502729147480e-03 1.2978633075256513e-02
      -1.4162778024793576e-02 6.0446614207735443e-03
      -6.9112276616300995e-04 -5.6193418444834917e-03
      5.1375923791552600e-03 1.7411289253121673e-02
      -9.3542074742923257e-03 2.0341124182099829e-03
      5.2777441848293055e-04 1.5234752734978541e-02
      -1.0002211153890847e-03 2.2214773109258202e-03
      8.5663216997468438e-03 -1.6693864162518569e-03
      3.0571184965301777e-02 8.8745979942798058e-03
      -7.7315182621055514e-03 -8.7971278782932767e-03
      4.7398963373016982e-03 -1.9456908113453249e-02
      -1.7460780152029915e-02 -5.9959217425659813e-03
      1.5146556909164490e-02 -3.3718188455786675e-02
      1.1855244225652909e-02 -5.8592773382261671e-03
      -1.6183038183801096e-02 3.0227832200727800e-04
      -1.6834685259672948e-02 -3.3073860107164783e-03
      -1.0417043731543786e-03 2.7812787519932030e-02
      -2.0427398278267901e-02 8.8478567748195131e-04
      1.4589786347320171e-02 -1.1958708527734195e-02
      2.1837929212729880e-03 -1.0348524592224025e-02
      8.8308253831837966e-04 8.5804281205719909e-03
      1.3566707816084289e-02 -2.2651452425252221e-02
      -2.0008658786605231e-02 -7.7992792844461950e-03
      4.6510430191654527e-03 -9.5865212010071178e-03
      -5.3226434227574481e-03 -4.5418839048346933e-03
      3.0100439938109316e-03 -8.7155149898977607e-04
      2.2006525547666111e-03 -1.4560752085635261e-03
      1.2980262027125457e-02 1.7573470257452126e-02
      -1.6306266003716693e-02 -9.6015523767298810e-03
      -1.2481663093612073e-02 -9.4692165245179021e-03
      -1.2404131373267411e-02 1.3462943848966981e-03
      1.1115654395829551e-02 4.6967246334894026e-03
      -5.4915067904598271e-03 -1.4474027817402573e-02
      -3.6178915446211640e-03 8.7868398560396617e-04
      -1.7149678649221192e-02 1.4670387001846384e-02
      -3.0354370458887860e-03 -1.1212761490681331e-02
      4.0057994643252146e-03 -7.6530872821193039e-03
      4.7330447232717893e-03 -2.1863965194445670e-02
      1.2304990325120268e-02 -2.7371519171349310e-02
      -3.6608782695455957e-03 -1.1770321823107369e-02
      4.6501205548799178e-03 -8.7693252457872514e-03
      1.5045787220053971e-02 1.9980020956778827e-02
      1.0835290683483207e-02 -1.0956289656900533e-02
      -6.2453745554787220e-04 7.9092496737707737e-03
      7.3370427198999081e-03 2.1476636976234965e-02
      3.6056933332058809e-03 -1.1175974998062263e-02
      -1.1504249375420884e-03 -1.6702214112222532e-03
      7.5647902202479241e-03 2.5493985139281278e-02
      3.5191501020012783e-02 1.3637273122313942e-02
      -2.0510970788538592e-03 2.6789144333565364e-02
      1.7598933214943716e-02 -1.7182106210311101e-02
      -1.9314302514754571e-02 -1.4316235158620702e-02
      1.7074231201429008e-02 -4.5307458658792521e-03
      -2.0513369708966594e-02 -2.8728400433247557e-02
      -2.6856257886762977e-02 -2.5953016060660760e-02
      5.9187830794202268e-03 -8.1055727987799815e-03
      2.8640899941769698e-02 5.7324681065185502e-04
      1.1270051759870557e-02 -7.6146292015295183e-03
      3.6200380135508830e-03 2.3033678029368218e-02
      1.0813686596939686e-02 4.5689919838317163e-03
      4.2090819843121395e-03 7.3415193619370241e-03
      -6.1889847817764437e-03 2.1358190180675921e-02
      1.3023876430068831e-02 1.0625236109915754e-03
      1.3220378200545791e-02 8.0035266291101081e-03
      -9.1182867981593647e-03 -1.2664874884239874e-02
      -2.4317898899869531e-02 -1.8900602831947284e-02
      2.8114873596037239e-02 7.6757440219980761e-03
      -8.6829104761207594e-03 8.5292148865231433e-03
      -1.3467076931087396e-02 -1.0657577857784825e-02
      -3.0932191798522447e-02 -1.8886537528590216e-03
      5.5919793033030116e-03 -2.6241190519705710e-02
      -8.0041825574082121e-04 -6.3107566620035022e-03
      1.1019572205738756e-02 8.2215625857430877e-03
      2.7177773850869301e-02 -1.0585279702281547e-02
      -2.0584361724926693e-03 1.1405983082514434e-02
      6.5677713357667946e-03 1.2031158022707144e-02
      6.9233039560201081e-03 6.6576571169833277e-04
      -2.5291324480725540e-02 -2.4129452876719380e-02
      -1.3128530881025380e-02 -3.3321366269928290e-03
      -8.9241056938124952e-03 1.5588384658282261e-03
      -1.5870148208260926e-02 1.3635212750092010e-02
      1.4957319238998379e-03 -1.5666421499484669e-03
      7.1838776379811991e-03 -1.7974129669768885e-02
      7.2967404119735754e-03 2.7101893182847319e-03
      -1.5104314814332253e-02 -2.5638830330605152e-02
      -8.6781259749776785e-03 2.7982185875857339e-03
      -1.9938219994448548e-03 -1.5153843571393433e-02
      -4.5976992462027425e-03 -7.2103307860311005e-03
      -8.3655221493084304e-04 9.7572704949885954e-03
      -1.0108378060906663e-02 1.6007801283821357e-02
      -1.2351402806437555e-02 2.7823633324810110e-03
      -1.9194039208824610e-02 -1.5951665257343144e-02
      1.6165835580172587e-02 9.3798435979102236e-03
      2.5603336608227541e-04 2.4698776315066357e-03
      -2.6653517819987479e-02 1.0566215932590030e-02
      2.2704395210677287e-02 1.4315507339929603e-02
      2.4138199363279725e-02 1.0437851861138693e-02
      2.1444858982610976e-02 -5.4057071280223211e-03
      1.9185022407653629e-02 4.4682582523426356e-03
      -7.3876987029871473e-04 4.7982193559146851e-03
      -2.2441129442326140e-04 1.1300265686471791e-02
